tree
version=v4
num_class=1
num_tree_per_iteration=1
label_index=0
max_feature_idx=14
objective=regression
feature_names=sars_cov2_gc_l_mean suspended_solids_mg_l ammonia_mg_l ophosph_mg_l sample_ph_pre_ansis raw_ansis_sars_repc_std grab_compo_boo sars_below_lod sars_below_loq reception_delay catchment_population_ons_mid_2019 catchment_area catch_in_cis_prop catch_cis_population over_50
feature_infos=[1.8228216453031045:5.8979121587958154] [1.3979400086720377:3.2423118010493268] [0.92427926633923863:1.8864907251724818] [0:1.1139433523068367] [7.4000000953674316:7.8000001907348642] [0:869.77124023437511] [0:1] [0:1] [0:1] [18.866666666666667:119.48333333333332] [364674:3031194] [166.02620788777676:627.4537235453289] [0.16390515105692641:2.4353165028917529] [19682.058349217841:741607.45209360239] [3085:128222]
tree_sizes=2766 2769 2767 2770 2792 2789 2782 2792 2793 2798 2813 2793 2818 2802 2807 2810 2822 2832 2141 2824 2040 2307 2225 2828 2320 1794 1718 2830 2830 1970 2152 2755 2070 2840 1978 2863 1366 2331 1806 2679 2491 2530 2866 2859 1019 2847 2870 2261 2858 2848 2857 1114 1291 1904 2868 1123 1635 2867 1824 2161 2867 2863 1985 2451 2337 1378 2876 2174 2870 2331 2612 1468 1464 2361 2872 1296 2437 2581 1292 2878 2844 2524 2883 2883 1920 2895 1917 2891 2005 2427 2878 1122 1126 1029 2357 1556 1216 2095 2874 2014 2090 1389 2858 1666 2707 2094 1830 2900 1126 2366 2897 1577 1115 1118 1403 2547 2899 1124 2909 1855 2903 2897 2902 1930 2042 2097 2820 2698 1122 1554 2441 1743 2274 1486 1392 1830 2903 2888 2540 1865 2525 1572 1747 2900 1296 2897 2914 2896 1748 2885 2866 2902 2893 2803 2351 2892 2870 2384 1119 2468 1938 1833 2108 1831 1745 2281 2896 2907 1650 1930 1475 2217 2900 2898 2919 1033 1474 2104 2901 2942 2921 2909 1655 1394 2391 1942 2124 2908 1751 1394 2911 2552 2311 1660 2743 2199 2911 1921 1920 1572 1754 2471 1499 2742 2390 1402 1861 2928 2924 2671 1747 1398 1763 2937 2467 2117 1857 2943 1766 2663 2569 2128 2756 1918 1313 2892 2920 1315 2915 1858 2185 2404 1129 2932 2752 2921 2303 2774 2831 2896 2843 2834 2931 2933 2839 2764 1574 2664 1941 2394 2938 1751 2312 1048 1135 2855 1589 2927 2942 2943 1844 2495 1772 1500 2215 2935 2570 1765 2108 2402 959 2929 2931 2045 2924 1668 2412 1138 1869 1955 1859 2936 2911 2938 2925 1413 2412 2925 2843 2578 2963 2580 2939 1862 2651 2925 2027 2122 1507 1048

Tree=0
num_leaves=31
num_cat=0
split_feature=0 0 3 0 10 0 9 3 0 4 5 5 12 5 0 0 10 3 0 11 3 0 9 3 0 3 0 11 4 14
split_gain=208.199 39.6107 34.6949 15.4191 11.9373 12.1757 15.2245 11.1171 13.5295 8.00953 10.3593 7.76803 6.91923 6.75653 6.29063 4.83425 4.30951 3.88841 3.72492 2.14669 1.73866 1.73713 1.65813 1.6126 1.5782 1.57438 1.48558 1.48178 1.24003 1.17143
threshold=4.1590113758009659 5.1334831121674123 0.51850302960943784 3.8446204670162563 401651.50000000006 3.854348477168974 47.591034668193025 0.39450669680334 4.1740436973854038 7.6985511650459193 4.5162989580509487 20.15864905215896 2.0517657923590265 13.082799890425422 4.65324229711677 4.5138746621935804 2912637.7997286976 0.44717768947071174 3.8068299233780256 443.9667847125607 0.55630620056237257 4.3492973553993473 24.149206887289605 0.49133799490170937 3.7151271718062873 0.59100267396570116 4.0579369035328376 458.06278300455261 7.7768069528644554 68675.500000000015
decision_type=2 2 2 2 2 2 2 2 2 2 2 2 2 2 2 2 2 2 2 2 2 2 2 2 2 2 2 2 2 2
left_child=2 7 3 16 -4 20 9 15 -9 10 -7 19 14 -11 -10 -2 24 22 -18 -5 27 -19 -14 -16 -1 28 -13 -6 -3 -28
right_child=1 25 4 11 5 6 -8 8 12 13 -12 26 17 -15 23 -17 18 21 -20 -21 -22 -23 -24 -25 -26 -27 29 -29 -30 -31
leaf_value=-0.15231905172508464 -0.073085705907055681 -0.0060819975409685811 -0.073400071361968661 -0.043749550287581818 -0.15690233128271183 -0.035791172863173418 0.0012542606580973337 -0.0019834033680020124 -0.092647711912474812 -0.24020307616628997 -0.17037940518968098 -0.10169273053633855 -0.064748836750466943 -0.15592364650828433 -0.039152030834578147 -0.02501436634780263 -0.15699964685850137 -0.14232698640565714 -0.23459274405474703 -0.089544064610808036 -0.22683093877331273 -0.1092002066330844 -0.11292043619848696 -0.066954139092142984 -0.10073016370704628 -0.046525920573072532 -0.15919238596182947 -0.21068470400508565 0.020891442027723139 -0.10677840962211042
leaf_weight=101 137 224 33 85 27 28 20 77 423 104 125 47 107 60 133 215 50 79 49 79 307 319 39 224 31 29 66 85 98 23
leaf_count=101 137 224 33 85 27 28 20 77 423 104 125 47 107 60 133 215 50 79 49 79 307 319 39 224 31 29 66 85 98 23
internal_value=-0.102282 -0.0632193 -0.164547 -0.125022 -0.191147 -0.196287 -0.167985 -0.0754987 -0.0834821 -0.178663 -0.145749 -0.0951162 -0.0882218 -0.209369 -0.0761473 -0.043724 -0.163861 -0.105534 -0.195404 -0.0658091 -0.219049 -0.115776 -0.0776166 -0.0565965 -0.140203 -0.00189247 -0.130457 -0.197719 0.00212731 -0.145647
internal_weight=0 2104 1320 531 789 756 337 1753 1401 317 153 300 1324 164 780 352 231 544 99 164 419 398 146 357 132 351 136 112 322 89
internal_count=3424 2104 1320 531 789 756 337 1753 1401 317 153 300 1324 164 780 352 231 544 99 164 419 398 146 357 132 351 136 112 322 89
is_linear=0
shrinkage=1


Tree=1
num_leaves=31
num_cat=0
split_feature=0 0 3 0 11 0 5 0 3 4 5 5 0 5 12 5 14 0 5 1 0 1 3 1 1 5 5 1 11 1
split_gain=133.248 25.4531 22.2048 9.90108 7.6399 7.79243 10.431 7.42324 6.50203 5.40242 6.49779 5.46722 5.25756 5.03194 3.19891 2.86373 2.38209 2.10993 2.03107 2.03067 1.87311 1.58477 1.56206 1.55259 1.86941 1.55022 1.50852 1.37585 1.37234 1.17633
threshold=4.1590113758009659 4.9437715110211018 0.51850302960943784 3.854348477168974 186.14534489175466 3.854348477168974 3.6901333231475717 4.1740436973854038 0.39450669680334 7.6985511650459193 4.8833981930758847 13.082799890425422 5.161035768153444 20.15864905215896 2.0268779781157673 304.83290822865257 64363.500000000007 4.5138746621935804 7.2358294753123049 2.3920655665016044 4.3991064878887238 1.9782835628205777 0.61724438328098274 2.4771092602859119 2.7025001129755952 3.5829604137295008 99.644631983481275 2.2787342787002731 322.09462813629119 1.7820616446256334
decision_type=2 2 2 2 2 2 2 2 2 2 2 2 2 2 2 2 2 2 2 2 2 2 2 2 2 2 2 2 2 2
left_child=2 7 3 16 -4 23 -7 27 17 10 -8 -11 15 25 19 22 18 -9 -1 -10 21 -16 29 -6 -25 -5 -22 -2 -21 -3
right_child=1 12 4 13 5 6 9 8 14 11 -12 -13 -14 -15 20 -17 -18 -19 -20 28 26 -23 -24 24 -26 -27 -28 -29 -30 -31
leaf_value=-0.12623815579073769 0.089467582118607336 0.020775214142420076 0.02310590007427064 -0.0064286748752803427 -0.081151483462263765 0.052479004049125845 0.058354083945353831 0.024400211522313021 0.028188327719674333 -0.1198728483946373 -0.055412127911226787 -0.042912961008648082 0.081521883581180482 -0.022539685529259529 -0.05995508981378455 -0.0091598166481536968 -0.029616885411087424 0.061109418149571874 -0.057234592097146181 0.043395969697104936 0.011592584371683187 -0.011974962303414941 -0.0017576159868622201 -0.11208571043420346 -0.051679604970242668 0.040133539401364354 -0.014772181455319859 0.030236474247205825 0.00021596389443992258 0.061068559685641781
leaf_weight=21 62 33 33 37 208 34 24 131 292 96 123 60 333 136 38 34 120 120 91 33 240 100 20 188 23 126 136 21 273 238
leaf_count=21 62 33 33 37 208 34 24 131 292 96 123 60 333 136 38 34 120 120 91 33 240 100 20 188 23 126 136 21 273 238
internal_value=0 0.0312505 -0.0498114 -0.0181917 -0.0710916 -0.0752033 -0.0525623 0.0164114 0.0128753 -0.0643491 -0.0368381 -0.0902729 0.0638603 0.00586478 0.00631244 0.045764 -0.0491956 0.0419504 -0.0701728 0.0162576 -0.00525795 -0.0251869 0.0521813 -0.0934135 -0.105501 0.0295642 0.00205639 0.0744814 0.00487263 0.056162
internal_weight=0 2104 1320 531 789 756 337 1446 1363 303 147 156 658 299 1112 325 232 251 112 598 514 138 291 419 211 163 376 83 306 271
internal_count=3424 2104 1320 531 789 756 337 1446 1363 303 147 156 658 299 1112 325 232 251 112 598 514 138 291 419 211 163 376 83 306 271
is_linear=0
shrinkage=0.2


Tree=2
num_leaves=31
num_cat=0
split_feature=0 0 2 0 10 5 0 2 5 0 0 1 9 2 0 2 11 9 11 0 0 12 12 3 10 3 10 2 1 2
split_gain=85.2785 16.29 15.5786 6.18039 10.3959 9.27637 4.75087 5.01804 4.02348 3.79084 3.36586 3.28318 3.22276 3.05605 3.26771 2.91083 3.91712 2.56498 2.51103 2.29665 2.14544 2.07969 1.69544 1.602 2.99806 1.5416 1.33392 1.23765 1.19925 1.44215
threshold=4.1590113758009659 4.9437715110211018 1.3972845650994448 3.854348477168974 2499893.5996621992 4.8833981930758847 4.1740436973854038 1.3410328172682797 13.082799890425422 3.7151271718062873 5.2008957445808575 2.582150177123173 23.806957622510321 1.4754462723087112 3.7887698147267863 1.6743153981985801 387.62309640284803 24.040340284226239 387.62309640284803 4.6812422862139202 4.0320174370991682 2.0517657923590265 2.0517657923590265 0.43589184481613968 2912637.7997286976 0.60421083575568735 2747354.5422821855 1.6743153981985801 2.3394628291933013 1.1874139635733496
decision_type=2 2 2 2 2 2 2 2 2 2 2 2 2 2 2 2 2 2 2 2 2 2 2 2 2 2 2 2 2 2
left_child=2 6 9 13 5 12 26 19 -6 -1 23 -7 -5 14 -4 16 -9 -10 27 28 -13 -11 -18 -3 25 -25 -2 -15 29 -8
right_child=1 10 3 4 8 11 7 15 17 21 -12 20 -14 18 -16 -17 22 -19 -20 -21 -22 -23 -24 24 -26 -27 -28 -29 -30 -31
leaf_value=-0.037289774729446938 0.014585281386971474 0.052324844712773003 -0.030132388463156315 -0.018829410485923292 -0.10065260140792183 -0.015522037092775394 0.018846237631209319 0.040028937722548341 -0.0035819406248629097 0.02159340346432468 0.066666416853567292 -0.12878786534070971 0.074698584101029808 -0.026872377557323336 -0.087367828922313567 -0.066391870330857194 0.0085125653112141011 -0.076643043595391355 -0.088076619814984422 0.072172291489208451 -0.043021871575287418 -0.013671893949202938 -0.0087427082091947154 0.052725587089472038 -0.011116042694260107 -0.004347616772207877 0.07387078016523331 -0.077404654748512047 -0.0044036364881321786 0.054385755267249397
leaf_weight=110 20 166 133 20 92 104 122 117 40 158 301 20 56 47 57 23 538 37 269 51 28 116 395 107 61 23 63 33 44 73
leaf_count=110 20 166 133 20 92 104 122 117 40 158 301 20 56 47 57 23 538 37 269 51 28 116 395 107 61 23 63 33 44 73
internal_value=0 0.0250004 -0.0398491 -0.0537658 -0.0348293 -0.00696548 0.0131292 0.0103002 -0.0724208 -0.00592723 0.0510883 -0.0354912 0.050086 -0.0677134 -0.047303 0.00399139 0.00553312 -0.0386892 -0.0788251 0.0336429 -0.0787577 0.00666357 0.00120728 0.0379537 0.0254637 0.042628 0.0595851 -0.0477169 0.0254211 0.0321508
internal_weight=0 2104 1320 936 397 228 1446 1363 169 384 658 152 76 539 190 1073 1050 77 349 290 48 274 933 357 191 130 83 80 239 195
internal_count=3424 2104 1320 936 397 228 1446 1363 169 384 658 152 76 539 190 1073 1050 77 349 290 48 274 933 357 191 130 83 80 239 195
is_linear=0
shrinkage=0.2


Tree=3
num_leaves=31
num_cat=0
split_feature=0 0 2 0 10 5 3 0 1 5 10 0 2 7 0 2 11 0 0 2 0 5 9 7 14 9 1 4 14 3
split_gain=54.5782 10.4413 9.97032 3.95545 6.65335 5.93913 3.80144 3.07326 2.80763 2.67058 2.59661 2.42614 2.41806 2.29306 2.81137 2.41964 2.80044 2.02484 1.97367 1.6086 1.5914 1.53188 2.41235 1.36547 1.14724 1.13851 1.09229 1.04015 1.01088 0.970433
threshold=4.1590113758009659 5.1334831121674123 1.3972845650994448 3.854348477168974 2499893.5996621992 4.5162989580509487 0.51850302960943784 4.0414853217010966 2.582150177123173 12.014466658570067 401651.50000000006 3.7151271718062873 1.4754462723087112 1.0000000180025095e-35 4.5138746621935804 1.3226037119237268 594.45026490573684 4.3425869563984767 3.7887698147267863 1.4891916980930766 4.1330365576492234 20.585752886484386 24.416559888958503 0.46802418754461239 78730.500000000015 24.034897477228082 2.4471128793008794 7.5464494954252705 73865.500000000015 0.34230817087744714
decision_type=2 2 2 2 2 2 2 2 2 2 2 2 2 2 2 2 2 2 2 2 2 2 2 2 2 2 2 2 2 2
left_child=2 6 11 10 5 25 13 8 -7 -6 -4 -1 18 21 28 -16 -17 24 27 -11 29 -2 -23 -19 -8 -5 -26 -12 -15 -13
right_child=1 -3 3 4 9 7 17 -9 -10 19 12 20 -14 14 15 16 -18 23 -20 -21 -22 22 -24 -25 26 -27 -28 -29 -30 -31
leaf_value=-0.029831819679926742 0.059011790765957396 0.051486602219543355 0.013122692695734177 0.006461803485517917 -0.085092454384534791 -0.026536376057368406 -0.055821653583220082 0.001915687631423536 -0.10394148302489314 -0.015077021986372391 -0.058645108894541345 0.026765190483011465 -0.06733061682277669 -0.0051187013218409391 0.045722115681536737 0.036439798040212031 0.0046180325088120405 0.036186333727456776 -0.069894265488051541 -0.070766629278659829 -0.036584862507879734 0.042908493396459843 -0.016743909577146554 0.001512807787310941 0.02130009200423956 0.060766258835792543 -0.035746148742478466 -0.015672742964994938 0.018022042436576968 0.00078001473959522782
leaf_weight=110 88 351 22 23 78 53 35 76 29 59 29 94 330 251 155 180 287 51 57 32 32 89 39 416 25 47 29 101 108 148
leaf_count=110 88 351 22 23 78 53 35 76 29 59 29 94 330 251 155 180 287 51 57 32 32 89 39 416 25 47 29 101 108 148
internal_value=0 0.0200003 -0.0318793 -0.0430126 -0.0278635 -0.00557238 0.0136959 -0.0270578 -0.0539114 -0.0579366 -0.0541707 -0.00474179 -0.0570343 0.0200434 0.0159358 0.0240699 0.0168834 3.04625e-05 -0.0388643 -0.0346602 0.00533086 0.0386985 0.0247332 0.00529942 -0.0276168 0.0429234 -0.00933585 -0.0252589 0.00184286 0.0108734
internal_weight=0 2104 1320 936 397 228 1753 158 82 169 539 384 517 1197 981 622 467 556 187 91 274 216 128 467 89 70 54 130 359 242
internal_count=3424 2104 1320 936 397 228 1753 158 82 169 539 384 517 1197 981 622 467 556 187 91 274 216 128 467 89 70 54 130 359 242
is_linear=0
shrinkage=0.2


Tree=4
num_leaves=31
num_cat=0
split_feature=0 0 2 10 3 10 5 14 2 6 2 7 9 5 9 0 3 8 0 0 10 3 5 2 5 2 9 3 4 0
split_gain=34.9301 7.15449 6.38101 2.75776 3.35367 5.99036 3.08567 2.33771 2.31463 3.3439 2.16664 2.26364 1.7988 1.69662 1.69523 1.55273 1.4864 1.40665 1.37725 1.3688 1.26798 0.989783 0.976168 0.904298 0.902067 0.876578 1.37416 0.867094 1.27251 0.847755
threshold=4.1590113758009659 4.9437715110211018 1.3972845650994448 401651.50000000006 0.61323992068545896 2499893.5996621992 5.7930142005068896 55086.000000000007 1.6501644328816814 0.40586911295381589 1.3410328172682797 0.00061272236963689163 24.315439982725234 7.2358294753123049 23.668605058128417 3.7151271718062873 0.55575987504924973 1.0000000180025095e-35 4.5138746621935804 4.3492973553993473 2213138.1990957367 0.47706784804341978 40.762035664589696 1.2743587885648828 14.443798089622277 1.4754462723087112 24.408130009596377 0.43589184481613968 7.6497055452830987 4.5778159321106164
decision_type=2 2 2 2 2 2 2 2 2 2 2 2 2 2 2 2 2 2 2 2 2 2 2 2 2 2 2 2 2 2
left_child=2 8 15 -4 5 6 16 -6 9 29 18 -12 17 -7 -15 -1 -5 27 -11 -13 -17 -14 -20 -22 -8 -9 -27 -3 -29 -2
right_child=1 12 3 4 7 13 24 25 -10 10 11 19 21 14 -16 20 -18 -19 22 -21 23 -23 -24 -25 -26 26 -28 28 -30 -31
leaf_value=-0.023865455698052592 0.050781489627026936 0.025897715585904386 0.024246053169331247 0.047730099830938427 0.0031676222234964372 -0.064592662363429559 -0.032817838550740934 -0.029009318947792052 -0.044227204381516484 0.010407015168430662 0.028613041549384058 -0.01811731488980127 0.054567198935201615 0.0047579206739153182 -0.043325774729745831 0.018479542442035812 -0.0016248681967576538 0.037824258166217289 0.01227408049233032 0.0020707571006799955 0.011967992909112067 0.029430811492169334 0.054196039817350751 -0.020962223141557643 -0.0046963194208974775 -0.046839253755879932 -0.079201350961962069 0.036557545597523652 -0.013499566356374608 0.021656156378165366
leaf_weight=110 82 109 31 46 25 128 119 30 33 153 111 165 177 35 181 131 52 173 33 723 53 97 68 90 74 91 124 28 74 78
leaf_count=110 82 109 31 46 25 128 119 30 33 153 111 165 177 35 181 131 52 173 33 723 53 97 68 90 74 91 124 28 74 78
internal_value=0 0.0160003 -0.0255034 -0.0344101 -0.0364193 -0.0284804 -0.00736 -0.0550905 0.00813296 0.00935581 0.00587909 0.00168553 0.0332892 -0.0463468 -0.0355344 -0.00379343 0.0215417 0.024456 0.0223726 -0.0016804 0.00426468 0.0456686 0.0404988 -0.00875732 -0.0220355 -0.0610352 -0.0655039 0.0134952 0.000241602 0.0365829
internal_weight=0 2104 1320 936 905 635 291 270 1446 1413 1253 999 658 344 216 384 98 384 254 888 274 274 101 143 193 245 215 211 102 160
internal_count=3424 2104 1320 936 905 635 291 270 1446 1413 1253 999 658 344 216 384 98 384 254 888 274 274 101 143 193 245 215 211 102 160
is_linear=0
shrinkage=0.2


Tree=5
num_leaves=31
num_cat=0
split_feature=0 0 3 10 10 9 12 3 12 0 12 3 14 0 13 4 1 3 0 1 3 2 10 10 1 1 14 1 9 2
split_gain=22.3552 4.57888 4.19233 2.4585 2.2696 1.85399 1.68238 1.59098 1.47857 1.4193 1.38203 1.32396 1.12797 1.11544 1.00698 1.00575 0.982624 0.977581 0.915625 0.898283 0.880878 0.86555 0.850204 0.818393 0.878178 1.37873 0.811481 0.797963 0.789554 0.759312
threshold=4.1590113758009659 4.9437715110211018 0.53115019816380393 2912637.7997286976 401651.50000000006 47.591034668193025 1.8230250913786861 0.51850302960943784 1.7595309742381449 3.854348477168974 1.8085542026856893 0.55126764995396671 80650.000000000015 4.0462761705300752 307877.5428771142 7.7324018235787442 2.5282275842251196 0.52425259430577709 4.3295196121867177 2.4771092602859119 0.62322718719098125 1.3972845650994448 1532891.9593499235 1342120.5331064567 1.8699404159556947 1.9295202211772293 95462.000000000015 2.25525210934186 24.18494588455599 1.4623888601757724
decision_type=2 2 2 2 2 2 2 2 2 2 2 2 2 2 2 2 2 2 2 2 2 2 2 2 2 2 2 2 2 2
left_child=2 6 3 9 -4 10 11 23 19 26 29 -2 18 16 -14 28 -12 -17 -9 -3 -16 -5 -15 -8 -25 -26 -1 -23 -10 -6
right_child=1 8 4 21 5 -7 7 12 15 -11 13 -13 14 22 20 17 -18 -19 -20 -21 -22 27 -24 24 25 -27 -28 -29 -30 -31
leaf_value=-0.017272794710808111 0.03403292089290396 0.061471539318723525 0.020366723474228021 -0.011735089462227333 0.014551371369510891 0.017041948111727833 0.03083594978423947 -0.045706775466747146 0.010551192177570288 0.016217142167273737 -0.036689507827648647 0.0031735628638621216 0.036128469335066304 0.011282918000450502 0.010499143684335816 0.044034210668225604 -0.056162213040403579 -0.0036425712704658514 -0.010351927306630456 0.014230053224379108 -0.040122524576727304 -0.025278857379856679 -0.032481170099760807 0.02155747790784799 -0.024624403096025899 0.0064432939069333471 0.022280056100338699 -0.062917444520983204 0.027984553776702004 -0.024418165940791371
leaf_weight=122 143 69 33 161 25 28 59 34 244 172 276 91 37 26 44 123 166 20 212 21 20 101 56 129 63 614 25 29 181 100
leaf_count=122 143 69 33 161 25 28 59 34 244 172 276 91 37 26 44 123 166 20 212 21 20 101 56 129 63 614 25 29 181 100
internal_value=0 0.0128002 -0.0204027 -0.00824271 -0.0308501 -0.0333466 0.00650637 0.00350883 0.0266313 0.00388423 -0.0355206 0.0220321 -0.00793191 -0.0400283 0.00986401 0.0228575 -0.0440028 0.0373661 -0.0152384 0.0504485 -0.00532013 -0.0215365 -0.0186048 0.00809836 0.00643395 0.00355221 -0.0105461 -0.0336752 0.0179758 -0.0166243
internal_weight=0 2104 1320 610 710 677 1446 1212 658 319 649 234 347 524 101 568 442 143 246 90 64 291 82 865 806 677 147 130 425 125
internal_count=3424 2104 1320 610 710 677 1446 1212 658 319 649 234 347 524 101 568 442 143 246 90 64 291 82 865 806 677 147 130 425 125
is_linear=0
shrinkage=0.2


Tree=6
num_leaves=31
num_cat=0
split_feature=3 5 4 5 5 5 1 9 13 12 12 2 2 12 1 1 7 6 12 1 4 14 12 1 9 5 1 5 9 5
split_gain=9.19231 5.89159 3.63187 2.23718 1.91306 2.13486 1.704 1.61633 1.45547 1.3981 1.38542 1.24327 1.09233 0.994349 0.987229 0.870548 1.07661 0.86447 0.845754 0.794081 0.799469 0.784938 0.722754 0.620439 0.830874 0.578745 0.568114 0.436921 1.00456 0.432505
threshold=0.53115019816380393 18.471561587139021 7.7324018235787442 3.3072280686786315 5.9079142009875651 34.308564109135737 1.8699404159556947 44.665919000572551 275996.53293783526 2.0517657923590265 2.0517657923590265 1.3766921769346869 1.68400901474522 2.0187149006113474 2.60757869794242 2.504449840225297 0.016817053280652302 0.48835537965662951 2.0028497666151353 2.5200727052678937 7.6008772083100133 73865.500000000015 2.0028497666151353 2.3865267511428834 24.05823667228773 69.829956845528372 1.7449917016564012 5.6097122162266411 24.672400107459669 7.4826730645643478
decision_type=2 2 2 2 2 2 2 2 2 2 2 2 2 2 2 2 2 2 2 2 2 2 2 2 2 2 2 2 2 2
left_child=2 7 3 11 21 9 26 8 15 17 -8 -1 13 18 19 22 29 -6 23 20 -10 27 -2 25 -25 -3 -7 28 -5 -17
right_child=1 12 -4 4 5 6 10 -9 14 -11 -12 -13 -14 -15 -16 16 -18 -19 -20 -21 -22 -23 -24 24 -26 -27 -28 -29 -30 -31
leaf_value=-0.0059539545908193579 -0.010495469973210506 0.0090586097914638238 0.031870403889447153 0.030512484814971687 0.034956791242133946 0.0028178005655906326 0.014797914788480207 0.019481205384557446 -0.016742041090637753 -0.016383244465593264 -0.0023991272313755819 -0.04644941642232564 -0.036128722744640608 -0.0041349287156079865 -0.0019571940162302994 -0.02325870804488659 0.013321940139867367 0.00039681260903008691 0.052657843232154847 -0.050319292722986297 -0.039310468913296641 0.049497275112403767 0.030283368299049991 0.012187560671009123 -0.021227849661160939 0.042877409130867045 0.033364623666152747 0.02941395822498534 -0.021360283344984056 -0.051993542075665158
leaf_weight=89 101 48 226 32 31 29 406 30 97 229 348 46 29 290 34 40 20 438 20 130 178 45 21 92 44 35 152 72 28 44
leaf_count=89 101 48 226 32 31 29 406 30 97 229 348 46 29 290 34 40 20 438 20 130 178 45 21 92 44 35 152 72 28 44
internal_value=0 -0.0136405 0.00787265 0.00508422 0.00693668 0.00479602 0.0110441 -0.0259289 -0.0279775 -0.00357349 0.00686082 -0.0197524 0.00166496 0.00373682 -0.0346909 -0.0149368 -0.028381 0.00268116 0.0132883 -0.0374389 -0.03135 0.0266864 -0.00347616 0.00969294 0.00137669 0.0233195 0.0284704 0.01891 0.00630519 -0.0383103
internal_weight=0 1253 2171 1945 1810 1633 935 695 665 698 754 135 558 529 439 226 104 469 239 405 275 177 122 219 136 83 181 132 60 84
internal_count=3424 1253 2171 1945 1810 1633 935 695 665 698 754 135 558 529 439 226 104 469 239 405 275 177 122 219 136 83 181 132 60 84
is_linear=0
shrinkage=0.2


Tree=7
num_leaves=31
num_cat=0
split_feature=5 3 11 3 2 3 8 5 14 5 5 5 5 5 5 5 11 12 5 3 9 5 2 5 2 3 3 1 5 2
split_gain=6.05108 4.40563 2.0741 2.26966 2.21135 1.57604 1.31781 1.29654 1.10353 1.43792 1.34507 1.01286 1.00296 1.54227 1.09765 1.05919 0.975223 0.850564 0.804993 0.713855 0.712976 0.710318 0.710232 0.698321 0.960793 0.68568 0.831352 0.67732 0.660247 0.578509
threshold=33.47175598144532 0.51353906166790209 387.62309640284803 0.67233854820853378 1.6743153981985801 0.39450669680334 1.0000000180025095e-35 45.92010769946139 76276.500000000015 5.7930142005068896 3.6162706058074616 28.187366886087769 3.2134208679199228 5.7930142005068896 11.746954404477249 1.7505423033795486 594.45026490573684 1.8085542026856893 12.014466658570067 0.63344074172709697 23.882822801363748 26.998165808102254 1.2429354318779329 6.1091068706319289 1.5315867166228208 0.41359792176459875 0.4623887976561854 2.5351425778935468 3.6901333231475717 1.1355317272038306
decision_type=2 2 2 2 2 2 2 2 2 2 2 2 2 2 2 2 2 2 2 2 2 2 2 2 2 2 2 2 2 2
left_child=1 11 4 8 23 20 7 25 18 10 -10 12 15 -14 29 -1 -16 19 28 -9 22 -20 -2 -3 -25 -7 -27 -11 -4 -15
right_child=5 2 3 -5 -6 6 -8 17 9 27 -12 -13 13 14 16 -17 -18 -19 21 -21 -22 -23 -24 24 -26 26 -28 -29 -30 -31
leaf_value=-0.0033885589489172059 -0.010665168447241663 0.043178917743986654 -0.015669087068283859 -0.051879986596090361 -0.033419730541451524 -0.017738808868896394 0.021203486501145619 0.025977141361127234 -0.017790499653079009 -0.010423763759345527 0.03029871044525256 -0.020943104183700469 0.024005462855917738 -0.028880800555149716 0.018303122107790466 -0.0526887827269409 -0.0015752863780646332 -0.0035111511250135101 -0.0080189409045974772 -0.0095637045378680341 0.027434383384425637 -0.048277172213420275 0.021933397969170924 0.036326999572338536 -0.0067122520058084355 0.041420762751389437 0.01229409488386937 -0.037195777408002569 -0.037564554659056143 -0.0040169559287674293
leaf_weight=72 47 31 79 87 48 21 189 77 38 126 60 70 159 48 194 23 201 668 142 32 236 20 62 32 59 54 143 54 182 170
leaf_count=72 47 31 79 87 48 21 189 77 38 126 60 70 159 48 194 23 201 668 142 32 236 20 62 32 59 54 143 54 182 170
internal_value=0 -0.00755229 -0.0170894 -0.0214118 0.00294612 0.0093601 0.00589398 0.00298594 -0.0176304 -0.00784202 0.0116519 0.00219855 0.00406697 0.00645321 0.00190051 -0.0153244 0.00818778 -0.000838157 -0.0240635 0.0155431 0.0212554 -0.0129891 0.00787714 0.017254 0.00842243 0.0166159 0.0202781 -0.0184554 -0.0309372 -0.00949156
internal_weight=0 1895 958 788 170 1529 1184 995 701 278 98 937 867 772 613 95 395 777 423 109 345 162 109 122 91 218 197 180 261 218
internal_count=3424 1895 958 788 170 1529 1184 995 701 278 98 937 867 772 613 95 395 777 423 109 345 162 109 122 91 218 197 180 261 218
is_linear=0
shrinkage=0.2


Tree=8
num_leaves=31
num_cat=0
split_feature=0 0 1 12 12 2 2 5 0 5 5 5 0 3 5 3 9 11 1 1 11 2 11 5 3 11 1 0 1 5
split_gain=7.25707 2.26478 1.50127 1.22905 1.21378 1.15805 1.61411 1.0832 1.21035 0.887024 1.7269 0.852895 0.963068 0.85506 0.879015 0.724674 0.864532 0.680794 0.664965 0.688257 0.65491 0.626246 0.62301 0.720604 0.613479 0.583162 0.52345 0.520229 0.504148 0.460495
threshold=4.0063636259707414 4.6877530170814117 2.5001193190950999 2.054815105202437 1.7595309742381449 1.3617162662137372 1.1355317272038306 6.3785661249181951 4.2016030697910844 4.1281078468409484 3.5829604137295008 63.389125008348451 5.1312946008748463 0.44715484278910517 104.52309150056847 0.18304448561060291 23.286864094966951 424.39392534289885 2.5564275981360209 2.6886372753077423 594.45026490573684 1.4623888601757724 322.09462813629119 48.890119365475051 0.58828643106103329 458.06278300455261 2.3920655665016044 4.2016030697910844 2.4150090165561573 20.15864905215896
decision_type=2 2 2 2 2 2 2 2 2 2 2 2 2 2 2 2 2 2 2 2 2 2 2 2 2 2 2 2 2 2
left_child=3 2 7 5 26 6 -1 8 20 10 17 -6 13 14 -13 -9 28 -7 29 -20 -2 -12 -4 24 -24 -18 -3 -26 -17 -11
right_child=1 4 22 -5 11 9 -8 15 -10 18 21 12 -14 -15 -16 16 25 -19 19 -21 -22 -23 23 -25 27 -27 -28 -29 -30 -31
leaf_value=-0.02109527211186701 0.053806821300337718 0.040268174580758417 0.0075523801768819501 -0.028182194073133132 0.018723421613092591 0.01277124871313572 0.021418486755361323 0.023140736741347697 -0.0077643272963878532 -0.017834994744660326 0.0025467441683369027 0.031250978681574844 0.015305803839388924 -0.0079281563639768179 -0.00053027382970828076 0.0079741721721201045 0.0024873275130078355 -0.024405160509250179 -0.04071223156088416 0.00052368201315402987 0.019994401767101027 0.042937302998924523 -0.018480885436576677 0.0061023956071585422 -0.071528775952756404 -0.0088169204574581744 0.014969839445418782 -0.026458039668449645 0.04015438326674959 0.0015290308844073323
leaf_weight=58 30 83 36 201 314 25 93 53 54 321 28 56 264 234 92 127 331 93 85 20 97 34 82 30 20 407 54 21 23 58
leaf_count=58 30 83 36 201 314 25 93 53 54 321 28 56 264 234 92 127 331 93 85 20 97 34 82 30 20 407 54 21 23 58
internal_value=0 0.00598084 0.00037015 -0.0141751 0.0126861 -0.0107205 0.0050887 0.00314789 0.0173171 -0.0143157 -0.00232901 0.0101729 0.00601674 -0.000402929 0.0114951 0.000422475 -0.000933458 -0.0165288 -0.0187736 -0.0328578 0.0279816 0.0246964 -0.0161199 -0.0216899 -0.0284685 -0.00374686 0.0302966 -0.0484438 0.0129085 -0.0148716
internal_weight=0 2408 1311 1016 1097 815 151 1122 181 664 180 960 646 382 148 941 888 118 484 105 127 62 189 153 123 738 137 41 150 379
internal_count=3424 2408 1311 1016 1097 815 151 1122 181 664 180 960 646 382 148 941 888 118 484 105 127 62 189 153 123 738 137 41 150 379
is_linear=0
shrinkage=0.2


Tree=9
num_leaves=31
num_cat=0
split_feature=0 0 1 12 12 4 2 2 14 11 5 5 9 1 9 9 9 5 0 9 1 0 9 1 11 1 5 0 11 2
split_gain=4.64452 1.53585 0.960383 0.786594 0.742144 0.804509 0.741154 1.03303 0.671058 0.624761 0.567695 1.10522 0.586987 0.507027 0.487134 0.462067 0.595116 0.490108 1.05185 0.541974 0.442316 0.617043 0.608472 0.517285 0.435708 0.433966 0.403563 0.561691 0.396856 0.37424
threshold=4.0063636259707414 4.8271651933656825 2.5001193190950999 2.054815105202437 2.0268779781157673 7.7324018235787442 1.3617162662137372 1.1355317272038306 76276.500000000015 443.9667847125607 4.1281078468409484 3.5829604137295008 24.034897477228082 2.40960942180272 23.745935034486312 25.331772344933011 25.563150489348256 19.430442318859271 4.3295196121867177 23.498714743553371 2.1760263938929989 4.3235778159904532 23.683388568216543 1.9053756432912381 424.39392534289885 2.5351425778935468 63.389125008348451 5.2549638670310053 513.71863071871053 1.5051085718301198
decision_type=2 2 2 2 2 2 2 2 2 2 2 2 2 2 2 2 2 2 2 2 2 2 2 2 2 2 2 2 2 2
left_child=3 2 8 6 13 14 7 -1 20 29 11 24 -13 -3 -6 17 -17 19 -19 -10 23 -22 -23 -2 -8 -12 -15 -28 -25 -4
right_child=1 4 9 -5 5 -7 10 -9 15 -11 25 12 -14 26 -16 16 -18 18 -20 -21 21 22 -24 28 -26 -27 27 -29 -30 -31
leaf_value=-0.016876217266263698 0.0045973185928507221 0.02351731078403934 0.0055301067161348631 -0.02254575487715366 -0.014772106328653912 0.020155629083358995 0.010216998981311919 0.017134789496672988 0.0077765954552956353 -0.028589874127360644 -0.011332426010315942 -0.0084434586018323904 0.033185973523982934 0.026366399534237691 0.0047318921206488422 -0.027916396781802178 0.013698728051450518 -0.012473280919029524 0.015754524621348073 0.0350265323671584 0.014689598328100812 0.01479609009676746 -0.0069860924425787134 0.015397589340806006 -0.019524128414109672 -0.024747751615556392 -0.0066749956733427752 0.023820577673614025 -0.01083673082585853 -0.014517006079355877
leaf_weight=58 179 246 74 201 63 120 25 93 53 61 351 20 42 39 274 28 27 76 173 65 157 70 192 25 93 133 78 35 298 75
leaf_count=58 179 246 74 201 63 120 25 93 53 61 351 20 42 39 274 28 27 76 173 65 157 70 192 25 93 133 78 35 298 75
internal_value=0 0.00478467 0.0010369 -0.0113401 0.011592 0.00609315 -0.00857644 0.00407096 0.0030036 -0.0115406 -0.0114526 -0.00186321 0.0197571 0.0179061 0.00108574 0.00960819 -0.00748715 0.0121702 0.00713881 0.0227872 -2.26086e-05 0.00477485 -0.00116643 -0.00402686 -0.013223 -0.0150189 0.00882474 0.00277054 -0.00880621 -0.00456072
internal_weight=0 2408 1553 1016 855 457 815 151 1343 210 664 180 62 398 337 422 55 367 249 118 921 419 262 502 118 484 152 113 323 149
internal_count=3424 2408 1553 1016 855 457 815 151 1343 210 664 180 62 398 337 422 55 367 249 118 921 419 262 502 118 484 152 113 323 149
is_linear=0
shrinkage=0.2


Tree=10
num_leaves=31
num_cat=0
split_feature=0 12 2 10 0 14 10 3 0 0 11 1 1 1 3 11 2 9 0 1 2 3 3 4 2 0 3 2 3 0
split_gain=2.97249 1.12218 1.01583 0.956032 0.831709 0.741716 0.561796 0.574429 0.729167 0.703528 0.730668 0.541186 0.540258 0.532557 0.530099 0.658516 0.509369 0.449479 0.424562 0.401987 0.450996 0.374235 0.361496 0.361142 0.583266 0.302846 0.28654 0.240602 0.234027 0.221498
threshold=4.0063636259707414 1.7595309742381449 1.6693996943637737 1229454.8146523745 4.7177211402693624 117640.50000000001 401651.50000000006 0.61323992068545896 3.9851248090661318 3.9459094280802005 458.06278300455261 2.5001193190950999 2.1431339122786346 2.5803690165330164 0.47712570826126716 594.45026490573684 1.1760672695256134 23.115685974253754 3.3985768185221246 2.7025001129755952 1.5156496089854177 0.18304448561060291 0.55022833395998738 7.6452664441180289 1.5634446829800079 4.5527925678685586 0.74914978435883128 1.5343501297486333 0.54793942106570359 4.3991064878887238
decision_type=2 2 2 2 2 2 2 2 2 2 2 2 2 2 2 2 2 2 2 2 2 2 2 2 2 2 2 2 2 2
left_child=6 5 3 23 11 22 -1 8 9 10 16 21 -12 -13 15 -6 -8 -16 26 20 -20 -5 -2 -3 -25 -24 -9 29 -11 -7
right_child=1 2 -4 4 14 27 7 18 -10 28 12 13 -14 -15 17 -17 -18 -19 19 -21 -22 -23 25 24 -26 -27 -28 -29 -30 -31
leaf_value=0.014786844252069532 0.028159649195020193 0.041362760433306299 -0.03634525498858205 0.014662704781674949 0.025516115847211852 -0.023879444291815162 -0.023709356704105934 -0.047186926249414687 -0.026923202454824657 0.0030329514993354678 -0.0031352862367421633 -0.029201296019283209 -0.019768876493712628 -0.0032909835233973957 0.018879676778756439 0.0068453159949850018 0.0041261384591565163 -0.003334147209809585 -0.032852202725077335 0.012693870142102243 -0.01063543296479658 -0.0015363905134356836 -0.0034591018490380413 0.023989102477828664 -0.0079180042852054957 0.023436559555942524 -0.016281668953597544 0.014000099504159558 0.024356181493827275 0.0016929466465842866
leaf_weight=38 135 24 27 61 90 20 30 30 68 50 123 55 214 75 42 471 213 275 52 20 123 880 33 75 33 34 20 36 35 42
leaf_count=38 135 24 27 61 90 20 30 30 68 50 123 55 214 75 42 471 213 275 52 20 123 880 33 75 33 34 20 36 35 42
internal_value=0 0.00382774 0.00219897 0.00269906 0.00158346 0.0152725 -0.00907204 -0.00999907 -0.0071968 -0.00517967 -0.00766999 -0.00215732 -0.0136979 -0.014253 0.00614653 0.00984063 0.000689658 -0.000390991 -0.018383 -0.0141672 -0.017237 -0.00048629 0.0221992 0.0191712 0.0142397 0.0101894 -0.0348248 0.000995086 0.0118131 -0.00655621
internal_weight=0 2408 2108 2081 1949 300 1016 978 733 665 580 1071 337 130 878 561 243 317 245 195 175 941 202 132 108 67 50 98 85 62
internal_count=3424 2408 2108 2081 1949 300 1016 978 733 665 580 1071 337 130 878 561 243 317 245 195 175 941 202 132 108 67 50 98 85 62
is_linear=0
shrinkage=0.2


Tree=11
num_leaves=31
num_cat=0
split_feature=0 12 2 4 10 14 2 2 5 12 5 0 1 6 0 4 0 10 4 5 10 0 6 2 1 5 5 2 6 0
split_gain=1.9024 0.718198 0.650131 0.728761 0.615805 0.474698 0.457119 0.623751 0.445952 0.456627 0.660313 0.632073 0.447156 0.423959 0.590582 0.54661 0.391597 0.302779 0.27889 0.205423 0.191841 0.18371 0.170667 0.240734 0.160948 0.306494 0.238656 0.150417 0.128737 0.15642
threshold=4.0063636259707414 1.7595309742381449 1.6693996943637737 7.7768069528644554 401651.50000000006 117640.50000000001 1.344889530064574 1.1355317272038306 32.554414849903303 2.0517657923590265 4.3027091269146949 3.854348477168974 1.9909891806522004 0.750406388917923 4.65324229711677 7.6008772083100133 3.8553967693891638 1342120.5331064567 7.6999382806831269 3.6162706058074616 1760851.7956861623 3.8968661231246906 0.99969492083381251 1.6171029370011829 2.559338330315359 11.354897901596781 8.0543479810410989 1.4053344600221147 0.99969492083381251 4.3991064878887238
decision_type=2 2 2 2 2 2 2 2 2 2 2 2 2 2 2 2 2 2 2 2 2 2 2 2 2 2 2 2 2 2
left_child=6 5 3 4 -3 18 7 -1 9 10 11 17 -11 15 -15 -6 -9 -8 28 -13 -18 27 23 -7 26 -26 -12 -14 29 -2
right_child=1 2 -4 -5 13 22 8 16 -10 12 24 19 21 14 -16 -17 20 -19 -20 -21 -22 -23 -24 -25 25 -27 -28 -29 -30 -31
leaf_value=-0.012602199907414617 -0.0057215640751215133 0.033090208468881131 -0.029076204454112388 0.017563437154478442 0.017394249132619454 0.020299332443003856 0.012589943224492556 0.030486748491724332 0.01947989587982496 0.0023639748302789836 -0.018615831646571965 0.0048605372282591736 -0.02967116799085371 -0.0042318114672752925 0.0035345743328798565 0.0012799458145324695 0.018221366747569006 -0.012636892490980912 0.02879784012810209 0.029144929873904116 -0.002399035358517352 -0.03064737257204558 -0.008077835242021018 -0.0072447629010474138 -0.010494941500807877 -0.034287758346181363 -0.0056815638921658739 -0.014002381290635494 0.018543774812571603 0.014204936181195081
leaf_weight=75 26 24 27 116 130 30 26 30 21 39 76 22 31 832 740 239 26 71 63 38 59 57 46 22 67 32 229 117 73 40
leaf_count=75 26 24 27 116 130 30 26 30 21 39 76 22 31 832 740 239 26 71 63 38 59 57 46 22 67 32 229 117 73 40
internal_value=0 0.00306219 0.00175918 0.00215925 0.00124989 0.012218 -0.00725763 0.00158763 -0.00929226 -0.0100428 -0.00690141 0.00410547 -0.0172655 0.000856196 -0.000575879 0.00695707 0.0108419 -0.00587506 0.0177594 0.0202407 0.00390838 -0.0209999 0.000796069 0.00864606 -0.0111788 -0.0181855 -0.00890453 -0.0172844 0.0127563 0.0063551
internal_weight=0 2408 2108 2081 1965 300 1016 190 826 805 561 157 244 1941 1572 369 115 97 202 60 85 205 98 52 404 99 305 148 139 66
internal_count=3424 2408 2108 2081 1965 300 1016 190 826 805 561 157 244 1941 1572 369 115 97 202 60 85 205 98 52 404 99 305 148 139 66
is_linear=0
shrinkage=0.2


Tree=12
num_leaves=31
num_cat=0
split_feature=0 9 1 11 0 9 11 3 2 9 9 0 11 3 9 1 1 9 0 2 4 1 2 2 1 9 0 1 3 9
split_gain=1.21753 0.732032 0.495225 0.734177 0.432181 0.624149 0.669237 0.447265 0.722147 0.415094 0.548801 0.543465 0.666451 0.62943 0.401455 0.860021 0.504246 0.450246 0.390454 0.372918 0.354787 0.34246 0.329794 0.320991 0.32068 0.562916 0.332552 0.317634 0.303931 0.312071
threshold=4.0063636259707414 25.799277979306691 2.3920655665016044 443.9667847125607 4.65324229711677 22.63383044728219 458.06278300455261 0.51164881499307036 1.4471532595845888 23.250140089883384 23.950035891707071 3.772772136610449 424.39392534289885 0.62181129811957436 24.416832371316289 2.1768727976830724 2.3462102928210857 25.366071762292602 3.7367619298442816 1.6061960292010611 7.744650418039174 2.3013078598049974 1.3578728190845666 1.4730980744827107 1.8699404159556947 23.520473962426415 4.1590113758009659 2.559338330315359 0.52728530651554772 24.600233894027415
decision_type=2 2 2 2 2 2 2 2 2 2 2 2 2 2 2 2 2 2 2 2 2 2 2 2 2 2 2 2 2 2
left_child=9 2 3 14 5 -4 -7 22 -9 21 18 23 -13 -14 16 -16 -2 -17 27 -10 24 -1 -6 28 26 -26 -5 -11 29 -12
right_child=1 -3 4 20 7 6 -8 8 19 10 11 12 13 -15 15 17 -18 -19 -20 -21 -22 -23 -24 -25 25 -27 -28 -29 -30 -31
leaf_value=0.021614424607583456 0.011685903097897994 0.018312772419534391 0.013302027418258342 -0.0071663536074069835 -0.004753351863473654 -0.0082995921520032292 -0.04036946625545107 -0.024344145942821492 0.0069089852683480437 -0.0010502509970330832 0.0053205937014094429 0.034623263155420622 0.0034657696268898634 -0.027958788212131838 0.024177733516941469 0.0014973308285246196 0.034976382155825075 -0.026714034018845395 -0.021429393272665513 -0.016167898503515653 0.0165277405070938 -0.0014637834757336022 0.02005826459514598 -0.014317875670610309 0.007603182301379097 -0.0046412134743495466 0.008803427038638444 -0.024541705780817817 0.013440192049663319 -0.017574203928763216
leaf_weight=35 165 111 47 65 30 254 29 49 159 99 42 24 211 29 60 103 48 29 154 34 57 97 75 202 197 632 264 30 38 55
leaf_count=35 165 111 47 65 30 254 29 49 159 99 42 24 211 29 60 103 48 29 154 34 57 97 75 202 197 632 264 30 38 55
internal_value=0 0.00244975 0.00168319 0.00358159 -0.00285951 -0.00804126 -0.0115859 0.00206838 -0.00266133 -0.00580611 -0.00736824 -0.0039487 0.00284633 -0.000331364 0.0109561 0.00432387 0.0169345 -0.00470062 -0.0146302 0.00284363 0.00112342 0.00465544 0.0129692 -0.00927181 0.000365174 -0.00173151 0.0056483 -0.00651338 -0.0017214 -0.00766099
internal_weight=0 2408 2297 1620 677 330 283 347 242 1016 884 601 264 240 405 192 213 132 283 193 1215 132 105 337 1158 829 329 129 135 97
internal_count=3424 2408 2297 1620 677 330 283 347 242 1016 884 601 264 240 405 192 213 132 283 193 1215 132 105 337 1158 829 329 129 135 97
is_linear=0
shrinkage=0.2


Tree=13
num_leaves=31
num_cat=0
split_feature=0 9 9 5 5 0 9 9 9 0 1 9 3 10 5 9 12 9 5 5 3 2 4 12 3 9 4 12 0 12
split_gain=0.800435 0.531276 0.669963 0.592845 1.3087 0.752936 0.74502 0.581674 0.75721 0.520644 0.50729 0.495408 0.477607 0.450104 0.419091 0.415584 0.458565 0.36228 0.350349 0.321856 0.321422 0.319591 0.313891 0.291783 0.271261 0.244095 0.370533 0.311605 0.252962 0.235177
threshold=4.65324229711677 23.286864094966951 23.63342049890765 5.6883420744529714 2.203739429809334 4.1838110521052991 23.806957622510321 23.406595729035143 23.498714743553371 4.573413538715652 2.6104224191358862 23.96770767577544 0.55626214845295807 2499893.5996621992 8.0543479810410989 21.968227052117225 2.0268779781157673 23.314293281417118 14.995866087129745 7.4826730645643478 0.59100267396570116 1.6929926118994441 7.7324018235787442 2.0187149006113474 0.51852203089270599 24.400646637512974 7.6008772083100133 1.8085542026856893 4.9673651088932989 1.8085542026856893
decision_type=2 2 2 2 2 2 2 2 2 2 2 2 2 2 2 2 2 2 2 2 2 2 2 2 2 2 2 2 2 2
left_child=1 21 7 4 -4 10 -7 17 24 -8 14 12 -6 18 -5 -2 25 -3 -10 -19 22 29 -18 -13 -9 26 28 -28 -17 -1
right_child=15 2 3 5 11 6 9 8 13 -11 -12 23 -14 -15 -16 16 20 19 -20 -21 -22 -23 -24 -25 -26 -27 27 -29 -30 -31
leaf_value=0.027774567008018492 -0.023696021256702289 -0.022713467092425735 -0.013088432974152473 -0.018519656013630266 0.014326502066105605 0.02456952694588907 0.0021285995233380445 -0.02829334868685059 0.020920398607850076 -0.015687981317603749 -0.033364535880184946 0.025365490176482125 -0.028377006406133828 -0.029992315359413626 -0.0051436772665703137 0.029613016864437777 -0.00017318992460687549 -0.0081110853258342976 -0.012823277467396111 0.017120610397213545 -0.02316169527669748 -0.017156478149505952 0.011151135661677759 0.010572335206670688 -0.059357161362740135 0.0033255321603855529 0.016931069377790563 0.0021822675428120422 0.0063709140217934673 0.0053589305933803297
leaf_weight=20 21 27 118 111 20 51 387 23 20 79 31 80 22 32 601 67 513 42 32 39 21 24 121 160 22 184 97 140 26 293
leaf_count=20 21 27 118 111 20 51 387 23 20 79 31 80 22 32 601 67 513 42 32 39 21 24 121 160 22 184 97 140 26 293
internal_value=0 -0.00223181 -0.00353177 -0.0021116 0.00459653 -0.00424117 0.00161985 -0.013479 -0.0225449 -0.000891808 -0.00831942 0.0119966 -0.008042 -0.0113297 -0.00722898 0.00418981 0.00469075 -0.00265024 0.000155059 0.00403751 0.00118175 0.00508576 0.00198808 0.0155034 -0.0434801 0.00916234 0.0124168 0.0082187 0.0231152 0.00679124
internal_weight=0 2234 1897 1660 400 1260 517 237 129 466 743 282 42 84 712 1190 1169 108 52 81 655 337 634 240 45 514 330 237 93 313
internal_count=3424 2234 1897 1660 400 1260 517 237 129 466 743 282 42 84 712 1190 1169 108 52 81 655 337 634 240 45 514 330 237 93 313
is_linear=0
shrinkage=0.2


Tree=14
num_leaves=31
num_cat=0
split_feature=1 12 0 11 2 2 11 6 9 5 7 4 5 5 5 0 0 6 2 9 7 0 7 0 5 0 9 5 0 5
split_gain=0.57978 0.557483 0.503292 0.473833 0.407294 0.377023 0.34177 0.420764 0.33843 0.331434 0.567855 0.313644 0.405056 0.30824 0.334743 0.292226 0.29151 0.290551 0.280917 0.324722 0.272236 0.230903 0.281399 0.222389 0.288823 0.192786 0.221217 0.181072 0.251124 0.221344
threshold=2.4367732208665491 2.054815105202437 3.4286013684890086 424.39392534289885 1.3410328172682797 1.5315867166228208 322.09462813629119 0.50000000000000011 23.286864094966951 17.541973114013675 0.99969492083381251 7.5008067485460161 5.9079142009875651 19.234793199193206 50.291508084294435 4.8154136345153038 4.1137462988291427 0.012496296085295617 1.4443959220560834 24.216391946157405 0.750406388917923 3.8968661231246906 0.54710218553193701 4.8347988350344178 113.85556230939495 4.6877530170814117 23.749615445995691 1.0961560696674539 3.272175136262073 6.3534145355224654
decision_type=2 2 2 2 2 2 2 2 2 2 2 2 2 2 2 2 2 2 2 2 2 2 2 2 2 2 2 2 2 2
left_child=1 3 27 5 -5 25 9 -8 13 -4 -11 -10 -13 -9 -15 18 -3 -18 19 -6 -20 -7 -23 -17 -25 26 -1 -2 -29 -30
right_child=2 16 6 4 15 21 7 8 11 10 -12 12 -14 14 -16 23 17 -19 20 -21 -22 22 -24 24 -26 -27 -28 28 29 -31
leaf_value=0.044577961104611562 -0.0037023689597845081 -0.0098913636428217613 0.01959061987113719 0.0071387283592681296 -0.00092114908479993336 -0.015673444065309707 -0.016043460229868255 -0.007778509481645682 -0.028324795070858229 -0.020259922826559942 0.015318259868562514 0.01019990283490876 -0.0060020681831222762 0.031983227520410357 0.0044284771662205461 0.023956982046365739 0.016083603979725587 -0.0021492723077194643 0.0058732433449064569 -0.011364675898467964 -0.0080391480095527122 0.02782679214142263 -0.0022379255543152495 -0.0018408663745503873 0.011889066979280511 0.010796787063388722 0.019335418964577161 -0.039407897330635357 -0.028886280277812922 -0.0055654446401338029
leaf_weight=21 34 194 51 492 364 21 102 34 21 34 38 74 372 29 45 25 38 437 271 177 71 20 33 140 109 46 41 22 27 41
leaf_count=21 34 194 51 492 364 21 102 34 21 34 38 74 372 29 45 25 38 437 271 177 71 20 33 140 109 46 41 22 27 41
internal_value=0 0.0015822 -0.00428084 0.00338748 0.00231861 0.0130719 -0.00244316 -0.00420518 -0.00210517 0.00725511 -0.00148255 -0.00443854 -0.00331385 0.0079845 0.015227 0.000268915 -0.00335871 -0.000690642 -0.00150167 -0.00433798 0.002985 0.00207489 0.00910725 0.00597486 0.00416943 0.0206069 0.0278853 -0.0161368 -0.0208343 -0.0148252
internal_weight=0 2500 924 1831 1649 182 800 677 575 123 72 467 446 108 74 1157 669 475 883 541 342 74 53 274 249 108 62 124 90 68
internal_count=3424 2500 924 1831 1649 182 800 677 575 123 72 467 446 108 74 1157 669 475 883 541 342 74 53 274 249 108 62 124 90 68
is_linear=0
shrinkage=0.2


Tree=15
num_leaves=31
num_cat=0
split_feature=3 12 11 2 14 10 0 4 2 2 2 0 5 0 1 5 0 0 5 3 0 2 0 2 5 1 3 1 1 2
split_gain=0.517604 0.661597 0.389224 0.541286 0.346806 0.311492 0.287714 0.237163 0.255257 0.220398 0.21447 0.204635 0.231249 0.230387 0.192039 0.218608 0.190322 0.382799 0.193676 0.167016 0.155578 0.206247 0.15158 0.215484 0.175879 0.147425 0.210881 0.118952 0.161817 0.117931
threshold=0.61323992068545896 1.8085542026856893 387.62309640284803 1.6024282943620605 89601.000000000015 3029886.4046837832 5.0559240256517777 7.7768069528644554 1.4771123473539318 1.4623888601757724 1.5879906265674337 4.0888636027765726 22.598873891805692 4.5255253241317641 1.8699404159556947 42.535949976171217 4.607501467013523 4.5778159321106164 73.426190579844771 0.66260011954708742 4.7910790280100466 1.3972845650994448 3.882953821476121 1.5156496089854177 7.2358294753123049 2.532956878608422 0.69759910999436692 2.6444805008189793 2.5730316022394928 1.5562986930836875
decision_type=2 2 2 2 2 2 2 2 2 2 2 2 2 2 2 2 2 2 2 2 2 2 2 2 2 2 2 2 2 2
left_child=1 4 3 19 -1 7 14 10 -9 -4 16 -6 -13 -14 15 -7 17 -3 -18 -2 21 -16 23 24 -11 -5 -27 28 -24 -21
right_child=2 5 9 25 11 6 -8 8 -10 22 -12 12 13 -15 20 -17 18 -19 -20 29 -22 -23 27 -25 -26 26 -28 -29 -30 -31
leaf_value=0.015384658058226275 0.029884769339114426 0.00039289118444295996 0.0083718043707665946 0.00082963223154049214 -0.010324255918691818 -0.0044296947363988461 0.0031493002268958266 0.027631617784001201 0.0020117938777964028 -0.032188454999224 -0.015061451991399131 0.021700775107989709 -0.016343681751327079 0.0074294502031758414 0.00029257898891551625 0.013420482234257023 0.0083321592833594509 -0.019525561816990375 0.0010564347312512392 -0.0014875629395246506 -0.015593280923226245 -0.0091296727877494144 -0.017089698876564703 -0.0030625217710621658 -0.010137008239204687 0.0011445161605176206 -0.022257119928335036 -0.0068733756261115725 -0.038351409421080639 0.017750972738632791
leaf_weight=178 20 1098 21 46 38 83 203 28 35 23 33 30 22 63 144 41 251 40 351 25 77 262 45 92 39 24 43 22 21 26
leaf_count=178 20 1098 21 46 38 83 203 28 35 23 33 30 22 63 144 41 251 40 351 25 77 262 45 92 39 24 43 22 21 26
internal_value=0 0.000952854 -0.00634596 0.00070982 0.00938267 -0.00010167 -0.00336869 0.00133966 0.0133984 -0.0112823 0.000911181 0.00239997 0.0066045 0.0012764 -0.00554852 0.00147238 0.00121411 -0.00030723 0.00409 0.0143948 -0.00735098 -0.00578779 -0.0129879 -0.00920409 -0.0183174 -0.00788871 -0.0138744 -0.0196094 -0.0238548 0.00832032
internal_weight=0 2977 447 184 331 2646 810 1836 63 263 1773 153 115 85 607 124 1740 1138 602 71 483 406 242 154 62 113 67 88 66 51
internal_count=3424 2977 447 184 331 2646 810 1836 63 263 1773 153 115 85 607 124 1740 1138 602 71 483 406 242 154 62 113 67 88 66 51
is_linear=0
shrinkage=0.2


Tree=16
num_leaves=31
num_cat=0
split_feature=3 12 11 3 1 14 14 2 3 14 11 2 1 14 14 3 2 3 0 1 4 1 2 3 0 2 3 0 6 0
split_gain=0.331266 0.423422 0.301311 0.268919 0.254134 0.246102 0.2282 0.228026 0.221044 0.238384 0.213498 0.380044 0.419482 0.331 0.288741 0.268807 0.255754 0.508337 0.240017 0.231218 0.256475 0.206969 0.224039 0.176552 0.169701 0.142513 0.132124 0.136282 0.123012 0.174848
threshold=0.61323992068545896 1.8085542026856893 186.14534489175466 0.77313417289234032 2.7025001129755952 78730.500000000015 55086.000000000007 1.4443959220560834 0.5049250347945079 117640.50000000001 594.45026490573684 1.5111744447466811 2.5200727052678937 80650.000000000015 81508.500000000015 0.3459738624773111 1.3301313956434986 0.38823033961484027 4.758546746602021 2.6280371519601711 7.5362751123655718 2.5803690165330164 1.5315867166228208 0.73275026022571466 4.8885729537316562 1.4474704442512978 0.55022833395998738 4.5778159321106164 1.0000000180025095e-35 3.8677776964264692
decision_type=2 2 2 2 2 2 2 2 2 2 2 2 2 2 2 2 2 2 2 2 2 2 2 2 2 2 2 2 2 2
left_child=1 5 3 -2 6 -1 23 8 9 -7 13 12 16 18 -15 -16 17 -12 21 20 -14 22 -3 -4 -20 -18 -9 -28 -8 -30
right_child=2 10 4 -5 -6 7 28 26 -10 -11 11 -13 19 14 15 -17 25 -19 24 -21 -22 -23 -24 -25 -26 -27 27 -29 29 -31
leaf_value=0.015976383154203674 0.027606858834624295 -0.0016281876898795852 0.014120740912340838 -0.0027577430408980167 0.0086795998069359673 0.010025633785663537 0.00024130040263706769 0.026950697519350798 -0.012376195317748088 -0.010327845910796897 0.0012499757444506322 0.018353629739660964 -0.039031411567702894 0.024238400534904076 0.02733775615692139 0.0025721867577399092 -0.0016036116664190662 0.030042610145532167 0.017546775505285373 -0.0044746860145570954 -0.010360280066155471 0.0095581686518833794 -0.016267130626163081 -0.0093433953411042013 0.0032313791256564765 -0.0072909245408002551 7.6948801356860829e-05 0.02027883255346255 -0.0079665387846585937 -0.01834685971185774
leaf_weight=97 20 460 29 28 38 82 37 20 44 32 433 38 24 42 20 142 886 26 44 46 26 59 46 23 134 220 34 22 165 107
leaf_count=97 20 460 29 28 38 82 37 20 44 32 433 38 24 42 20 142 886 26 44 46 26 59 46 23 134 220 34 22 165 107
internal_value=0 0.000762283 -0.00507677 0.00989417 -0.00687779 0.00750614 -0.00851541 0.00399497 -0.000335074 0.00431238 -8.13363e-05 -0.00142259 -0.00187502 0.00232498 0.00946087 0.00562966 -0.00108783 0.00288093 0.000365734 -0.0147079 -0.0241224 -0.0016519 -0.002959 0.00374237 0.00677002 -0.0027349 0.0129969 0.0080134 -0.0105782 -0.01205
internal_weight=0 2977 447 48 399 331 361 234 158 114 2646 1699 1661 947 204 162 1565 459 743 96 50 565 506 52 178 1106 76 56 309 272
internal_count=3424 2977 447 48 399 331 361 234 158 114 2646 1699 1661 947 204 162 1565 459 743 96 50 565 506 52 178 1106 76 56 309 272
is_linear=0
shrinkage=0.2


Tree=17
num_leaves=31
num_cat=0
split_feature=9 3 14 9 1 9 12 12 9 1 14 9 9 3 6 1 3 5 1 3 9 9 5 10 9 5 3 5 9 1
split_gain=0.396061 0.23433 0.258526 0.231787 0.245241 0.225984 0.192691 0.191143 0.180387 0.429002 0.273197 0.216004 0.319085 0.224342 0.179987 0.164447 0.155714 0.141605 0.187497 0.135608 0.120114 0.304117 0.132258 0.115471 0.10696 0.10593 0.0988633 0.0918882 0.0389446 0.0375743
threshold=25.774649158958887 0.61323992068545896 76276.500000000015 24.478630928842144 2.6528509023027005 22.84838606997123 2.0268779781157673 1.8230250913786861 25.331772344933011 2.1987514401151449 81508.500000000015 23.344955089640205 23.498714743553371 0.46550632152352012 0.750406388917923 2.6221958473429043 0.60171358120689789 3.9389853558375907 1.8663326002935521 0.64379575047810711 25.123967815487735 24.689056253199983 26.698808451531104 867648.36041890213 23.945949107597446 14.614815235137938 0.56819676403794084 9.3322879623515842 25.084803031731955 2.3951101385090854
decision_type=2 2 2 2 2 2 2 2 2 2 2 2 2 2 2 2 2 2 2 2 2 2 2 2 2 2 2 2 2 2
left_child=1 2 7 5 19 -3 15 -1 10 -10 20 13 -13 -12 -2 23 17 24 -19 -5 21 -4 -22 -7 -9 28 -11 -16 -21 -29
right_child=14 3 8 4 -6 6 -8 16 9 26 11 12 -14 -15 27 -17 -18 18 -20 25 22 -23 -24 -25 -26 -27 -28 29 -30 -31
leaf_value=0.018323540622368458 0.025398237770423295 -0.017117114563382441 0.013652073757727451 -0.022603114894876371 0.0073697787038981919 0.012850297303091673 -0.01469249832271426 -0.014517596101730455 0.013824355866139136 -0.022328864922081786 -0.0013291880623520619 -0.020423199290014578 0.00039390054549240123 0.010023889067878886 -0.0033676486076979805 -0.0094957080415704054 -0.016411448152804816 0.0046744432629264414 -0.0013990891805003257 0.0010176507563426577 0.0095347944809042896 -0.0065123375427598761 0.031772789582610129 0.0017665290787794666 -0.0034285056212684144 -0.018220209707300563 -0.0054492091760039336 0.0071338769982361968 -0.0097539756363257766 0.015306931373973688
leaf_weight=20 24 31 104 49 25 61 27 49 30 35 112 33 274 184 29 33 27 235 1508 29 23 42 20 98 120 34 23 90 25 30
leaf_count=20 24 31 104 49 25 61 27 49 30 35 112 33 274 184 29 33 27 235 1508 29 23 42 20 98 120 34 23 90 25 30
internal_value=0 -0.000496202 0.000150644 -0.00495347 -0.0108465 -0.00113479 0.00112754 -0.00112851 0.00299822 -0.00559218 0.00395271 0.00187312 -0.00184377 0.00572813 0.00932458 0.00335224 -0.00132915 -0.00111617 -0.000580225 -0.0141706 0.0105876 0.00785135 0.019878 0.00601879 -0.00664369 -0.00947528 -0.0156352 0.00673554 -0.00396921 0.00917714
internal_weight=0 3251 2839 412 162 250 219 1959 880 88 792 603 307 296 173 192 1939 1912 1743 137 189 146 43 159 169 88 58 149 54 120
internal_count=3424 3251 2839 412 162 250 219 1959 880 88 792 603 307 296 173 192 1939 1912 1743 137 189 146 43 159 169 88 58 149 54 120
is_linear=0
shrinkage=0.2


Tree=18
num_leaves=23
num_cat=0
split_feature=3 10 5 5 0 5 4 0 0 14 5 5 0 0 5 0 3 6 3 2 2 14
split_gain=0.232604 0.412825 0.20463 0.431669 0.394426 0.343508 0.363643 0.297106 0.240919 0.199799 0.195742 0.27891 0.186554 0.168952 0.166147 0.143291 0.134737 0.0975158 0.100343 0.0888023 0.0216095 0.0149487
threshold=0.82280935980193071 378446.50000000006 3.2134208679199228 5.6883420744529714 4.5138746621935804 5.3814796563977199 7.6926058600970739 4.5677061903739782 4.0462761705300752 68675.500000000015 54.520243898872387 64.936431884765625 4.6356280949610023 3.9943423385458297 46.480126634802133 4.5411618750835663 0.7037103454290895 0.037256620072090109 0.5049250347945079 1.2995024769517025 1.4471532595845888 81508.500000000015
decision_type=2 2 2 2 2 2 2 2 2 2 2 2 2 2 2 2 2 2 2 2 2 2
left_child=1 -1 16 5 10 6 8 15 -4 20 14 -12 -9 -8 -5 -6 17 -3 19 -19 -7 -20
right_child=-2 2 3 4 7 9 13 12 -10 -11 11 -13 -14 -15 -16 -17 -18 18 21 -21 -22 -23
leaf_value=0.020605437032496319 -0.018490009948059365 0.0065435895496713265 0.014658359409246631 -0.0026671337517709254 0.0048776383908396524 0.015702867397555598 -0.014645112338993287 -0.0070854952906990801 -0.0083979938517917286 0.03248363440787351 0.015595305454693377 -0.0081361660908441987 0.0017839319324587752 0.0016857972938631631 -0.010192017515297407 0.019586999906012075 -0.020889294625852595 -0.002002684828703818 -0.00066840157729305635 -0.017279269927077824 0.0079037197493016711 -0.0064221507636830211
leaf_weight=39 27 28 103 1208 54 27 45 103 22 27 52 32 1200 58 130 52 22 23 73 45 30 24
leaf_count=39 27 28 103 1208 54 27 45 103 22 27 52 32 1200 58 130 52 22 23 73 45 30 24
internal_value=0 0.000146962 -9.06438e-05 0.000317695 -0.000460414 0.00737804 0.00335001 0.00191116 0.0106004 0.0183113 -0.00281031 0.00655474 0.00108282 -0.00544907 -0.00339825 0.0120936 -0.00605999 -0.0043696 -0.00622154 -0.0121122 0.0115981 -0.00209201
internal_weight=0 3397 3358 3143 2831 312 228 1409 125 84 1422 84 1303 103 1338 106 215 193 165 68 57 97
internal_count=3424 3397 3358 3143 2831 312 228 1409 125 84 1422 84 1303 103 1338 106 215 193 165 68 57 97
is_linear=0
shrinkage=0.2


Tree=19
num_leaves=31
num_cat=0
split_feature=9 1 1 5 5 5 5 12 3 5 0 5 0 5 5 0 9 9 5 0 9 9 14 1 5 2 2 13 2 0
split_gain=0.215557 0.178286 0.210542 0.178318 0.157199 0.151053 0.15849 0.149418 0.148181 0.164364 0.142123 0.125623 0.12541 0.242076 0.32751 0.185955 0.165901 0.164194 0.151934 0.141432 0.150642 0.261754 0.116253 0.111563 0.109539 0.107677 0.187156 0.116379 0.103879 0.117109
threshold=25.774649158958887 2.5200727052678937 2.5910680042870635 7.4826730645643478 4.5162989580509487 5.3814796563977199 4.5162989580509487 2.054815105202437 0.61013001195617467 17.541973114013675 3.7887698147267863 9.667018689559205 3.9544090732065493 26.698808451531104 33.47175598144532 4.0621268812334188 22.443289078572544 25.157763852223123 46.480126634802133 3.8068299233780256 23.998477770426863 24.96587854548735 81508.500000000015 2.6444805008189793 5.7930142005068896 1.4913572720019037 1.1355317272038306 257899.4990315825 1.2073295427357504 4.4071674852647815
decision_type=2 2 2 2 2 2 2 2 2 2 2 2 2 2 2 2 2 2 2 2 2 2 2 2 2 2 2 2 2 2
left_child=1 7 4 5 22 6 -4 12 23 11 -2 -10 19 16 15 -15 -14 -18 -16 25 24 -22 -3 -5 -21 26 -1 -27 -9 -30
right_child=10 2 3 8 -6 -7 -8 28 9 -11 -12 -13 13 14 18 -17 17 -19 -20 20 21 -23 -24 -25 -26 27 -28 -29 29 -31
leaf_value=-0.0066211527346500335 -0.008139065970582041 -0.0088276782259345057 0.011432610635529273 0.011036945059378115 -0.0058518122211074913 0.02280113949839558 -0.011263012937270105 -0.0086782637878917573 -0.010991933860856555 -0.018494580666447293 0.009067131564312535 0.010403315208497502 -0.0076759336710286634 0.0065685610510408873 0.006924702308265961 -0.012540297137404031 0.0076106514545736491 -0.0044784993790090086 0.00033744860417029079 -0.023526951311915012 0.0066569714492652563 -0.015307726897299291 -0.030391788957640532 -0.0044998776216648127 -0.0072734489237539727 0.0063712362732206073 0.0068574208870697297 -0.0087669235301782965 -0.0042950146167152906 0.0012691925172111952
leaf_weight=56 22 20 32 36 196 21 20 89 23 40 151 21 36 25 171 110 444 50 774 27 60 34 20 38 43 28 156 74 287 320
leaf_count=56 22 20 32 36 196 21 20 89 23 40 151 21 36 25 171 110 444 50 774 27 60 34 20 38 43 28 156 74 287 320
internal_value=0 -0.000366065 -0.00398229 0.000310016 -0.00818366 0.00848503 0.00270352 0.000240536 -0.00346705 -0.00921581 0.00687906 -0.000780565 0.00108647 0.00193103 0.000213047 -0.00900162 0.00543183 0.00638705 0.00152943 -0.00175819 -0.00651848 -0.00128771 -0.0196097 0.00305858 -0.0135427 0.000728074 0.00329704 -0.00461135 -0.00229726 -0.00136166
internal_weight=0 3251 467 231 236 73 52 2784 158 84 173 44 2088 1610 1080 135 530 494 945 478 164 94 40 74 70 314 212 102 696 607
internal_count=3424 3251 467 231 236 73 52 2784 158 84 173 44 2088 1610 1080 135 530 494 945 478 164 94 40 74 70 314 212 102 696 607
is_linear=0
shrinkage=0.2


Tree=20
num_leaves=22
num_cat=0
split_feature=2 10 9 2 9 9 1 2 11 2 9 5 11 5 7 1 1 5 9 7 5
split_gain=0.148272 0.247624 0.177287 0.356049 0.345554 0.203789 0.200611 0.181663 0.19523 0.269624 0.154087 0.119067 0.118324 0.103468 0.324865 0.0852008 0.077367 0.0723348 0.0619042 0.0545164 0.0430131
threshold=1.6929926118994441 378446.50000000006 23.115685974253754 1.3953390332149538 22.917522807356359 23.116893514146692 2.3357467989623415 1.6237785624669201 387.62309640284803 1.4844147610069254 23.066469431429248 7.0691351974617245 458.06278300455261 14.995866087129745 0.35362753361379257 2.5351425778935468 2.4846973808953789 15.568876743316652 22.489293281417115 0.49069769483226722 42.001532027692271
decision_type=2 2 2 2 2 2 2 2 2 2 2 2 2 2 2 2 2 2 2 2 2
left_child=1 17 3 6 13 -4 18 8 11 -10 -2 -7 -6 16 -15 -9 -5 -1 -3 -8 -20
right_child=10 2 5 4 12 7 19 15 9 -11 -12 -13 -14 14 -16 -17 -18 -19 20 -21 -22
leaf_value=0.021040466358816182 -0.023265747823858297 -0.0079302549827843915 -0.020177768667538964 -0.0098605349108024879 0.015471969305404596 0.018279043405696197 -0.0077635638496798016 -0.022689859573729338 0.0002327066085307176 -0.0051811494225432464 -0.0016571550771142499 0.0039459976586286071 0.035331804274270934 0.029559442627689114 0.0028950531935591378 -0.0053266918465781675 0.0051441973578351154 0.0061106902919709685 0.010886823961994162 -0.02153390795802293 0.00038806896757435157
leaf_weight=27 22 20 21 27 28 27 23 20 2274 439 33 164 21 23 89 26 28 25 27 23 37
leaf_count=27 22 20 21 27 28 27 23 20 2274 439 33 164 21 23 89 26 28 25 27 23 37
internal_value=0 0.00016816 -4.65262e-05 0.00423806 0.00921534 -0.000545505 -0.00403188 -0.00040575 -0.00020822 -0.000643328 -0.0103006 0.00597214 0.0239833 0.00488222 0.00837078 -0.0128759 -0.00222176 0.0138627 0.00178212 -0.0146487 0.00481723
internal_weight=0 3369 3317 346 216 2971 130 2950 2904 2713 55 191 49 167 112 46 55 52 84 46 64
internal_count=3424 3369 3317 346 216 2971 130 2950 2904 2713 55 191 49 167 112 46 55 52 84 46 64
is_linear=0
shrinkage=0.2


Tree=21
num_leaves=25
num_cat=0
split_feature=3 11 12 2 4 3 13 4 9 5 7 12 5 7 7 3 9 2 12 1 3 7 5 5
split_gain=0.16142 0.16025 0.148481 0.14434 0.17126 0.156237 0.142764 0.116392 0.203297 0.233445 0.268011 0.135132 0.134896 0.116212 0.128568 0.119903 0.114787 0.226651 0.15807 0.0563777 0.0563131 0.0422878 0.0470358 0.0343551
threshold=0.77313417289234032 173.37439163087546 1.7595309742381449 1.5879906265674337 7.7324018235787442 0.50204320614231268 316534.35556831665 7.6227541601201976 24.336739971727017 22.598873891805692 0.97151937141300226 0.21506434659587539 5.3814796563977199 0.99969492083381251 0.46802418754461239 0.62534153253052871 23.115685974253754 1.4588029825427913 2.0187149006113474 2.5780910676324895 0.59100267396570116 0.40586911295381589 11.354897901596781 27.742964422781508
decision_type=2 2 2 2 2 2 2 2 2 2 2 2 2 2 2 2 2 2 2 2 2 2 2 2
left_child=1 -1 7 4 16 6 -6 11 9 12 -11 20 -9 14 15 -5 17 -4 -18 -2 -3 22 -13 -10
right_child=19 2 3 13 5 -7 -8 8 23 10 -12 21 -14 -15 -16 -17 18 -19 -20 -21 -22 -23 -24 -25
leaf_value=0.014965271628622351 -0.0056784815120476265 0.011331758681027329 -0.00076764355702228695 -0.018143891670148484 -0.003758932303794673 0.019825631752610207 0.0077048219505481286 -0.0013509366175402766 0.010604699652480044 -0.011891427524387837 0.0058392024601962942 -0.0037592420075088745 0.016706091257885605 0.0018875854089856149 -0.025342885440304164 0.0011620746745217231 -0.0049229348955322876 0.011261622945187233 -0.0003858938655631601 -0.019688401427119973 -0.0013215365916645775 -0.0014896796217986517 -0.017020949255675079 0.02061298955231905
leaf_weight=29 27 34 192 22 71 26 112 23 23 60 79 20 59 35 21 31 364 93 1967 20 24 35 23 34
leaf_count=29 27 34 192 22 71 26 112 23 23 60 79 20 59 35 21 31 364 93 1967 20 24 35 23 34
internal_value=0 0.000162004 3.37796e-05 -0.000466535 -0.000190986 0.00531829 0.00325714 0.00357948 0.005925 0.00317828 -0.00181431 -0.00121502 0.0116413 -0.00760804 -0.0120992 -0.00685172 -0.000631138 0.0031577 -0.00109438 -0.0116401 0.00609591 -0.00665135 -0.0108527 0.0165746
internal_weight=0 3377 3348 2934 2825 209 183 414 278 221 139 136 82 109 74 53 2616 285 2331 47 58 78 43 57
internal_count=3424 3377 3348 2934 2825 209 183 414 278 221 139 136 82 109 74 53 2616 285 2331 47 58 78 43 57
is_linear=0
shrinkage=0.2


Tree=22
num_leaves=24
num_cat=0
split_feature=9 3 10 8 3 3 9 3 3 3 2 9 9 0 9 0 2 0 6 12 14 13 10
split_gain=0.121165 0.103464 0.13663 0.0963508 0.156278 0.17994 0.125761 0.122734 0.284091 0.17509 0.148857 0.134483 0.546693 0.247502 0.121093 0.0976833 0.0845444 0.073379 0.101837 0.0344838 0.0375787 0.0152996 0.0122659
threshold=25.774649158958887 0.82280935980193071 378446.50000000006 1.0000000180025095e-35 0.51522924714516705 0.58828643106103329 23.914632183367441 0.42904090758914054 0.41490978922646188 0.38085537886261361 1.3523719101164444 23.406595729035143 23.498714743553371 5.11971038610905 24.502133755582047 5.083006213634321 1.477967124188911 3.7887698147267863 0.750406388917923 2.2700977040737809 83620.000000000015 327387.44545619347 1826511.0136041583
decision_type=2 2 2 2 2 2 2 2 2 2 2 2 2 2 2 2 2 2 2 2 2 2 2
left_child=1 2 -1 7 6 16 15 8 9 -4 -10 13 -13 -9 -8 -5 -6 -2 -19 20 21 -20 -23
right_child=17 -3 3 4 5 -7 14 11 10 -11 -12 12 -14 -15 -16 -17 -18 18 19 -21 -22 22 -24
leaf_value=0.011594788863872871 -0.0056337220213291328 -0.012603585008117889 0.0012143007292317583 0.017051189799200405 0.028432556465268134 -0.0016765601808271771 -0.0091515769871572655 0.0024519809415805807 0.001202048252354253 -0.0071524729132537782 0.01461871276419102 -0.023379883465046686 -0.0017084842647605699 -0.020284687094390394 0.0053307016325347574 0.0021844219884628222 0.011276226028524064 0.019652500074534191 0.0044355408222015412 -0.0022034453693777325 -0.00076850199451049175 0.0075005333001414935 0.013566645979881288
leaf_weight=39 22 27 556 22 20 28 72 451 53 122 88 48 1554 20 34 90 27 21 28 24 24 30 24
leaf_count=39 22 27 556 22 20 28 72 451 53 122 88 48 1554 20 34 90 27 21 28 24 24 30 24
internal_value=0 -0.000274452 -0.0001712 -0.000315273 0.00314068 0.0110155 0.000431443 -0.00066541 0.00140745 -0.000291225 0.00957557 -0.00148436 -0.00235781 0.00148652 -0.00450632 0.00510468 0.0185768 0.00515748 0.00672971 0.00464218 0.00619214 0.0082294 0.0101966
internal_weight=0 3251 3224 3185 293 75 218 2892 819 678 141 2073 1602 471 106 112 47 173 151 130 106 82 54
internal_count=3424 3251 3224 3185 293 75 218 2892 819 678 141 2073 1602 471 106 112 47 173 151 130 106 82 54
is_linear=0
shrinkage=0.2


Tree=23
num_leaves=31
num_cat=0
split_feature=1 1 9 11 9 1 9 9 9 9 9 0 1 0 0 1 10 1 0 0 2 0 14 10 9 1 2 4 12 10
split_gain=0.081474 0.216238 0.189821 0.0934629 0.222473 0.304572 0.383548 0.196485 0.157632 0.150606 0.142305 0.137856 0.128154 0.132913 0.146998 0.135754 0.104834 0.101134 0.0993351 0.0705849 0.0697156 0.0682491 0.0790553 0.0486325 0.0571012 0.0466456 0.0452153 0.0305595 0.0159946 0.00944177
threshold=1.7370434349644566 1.8132238594866992 25.041666666666668 443.9667847125607 23.520473962426415 2.4913659677986124 23.470001971102416 23.683388568216543 22.989747186187007 23.772892268805897 23.963335650195823 4.0800719885473393 2.1524175120942215 3.4428455740100357 3.4757709228987217 2.7025001129755952 662502.51694073284 2.1136968720591924 4.3497975467752132 4.9974508696110265 1.4215179135864393 3.7151271718062873 78730.500000000015 3030802.2311472814 23.569710527176252 2.568194562100325 1.2040974925491332 7.7000420741200974 2.2700977040737809 3030802.2311472814
decision_type=2 2 2 2 2 2 2 2 2 2 2 2 2 2 2 2 2 2 2 2 2 2 2 2 2 2 2 2 2 2
left_child=26 2 19 12 5 6 18 23 11 20 -11 -7 17 16 -15 -16 -14 21 -5 29 -9 -3 -23 24 -6 -18 27 -1 -28 -2
right_child=1 3 -4 4 7 8 -8 9 -10 10 -12 -13 13 14 15 -17 25 -19 -20 -21 -22 22 -24 -25 -26 -27 28 -29 -30 -31
leaf_value=-0.006285422657512957 0.014469316377824941 -0.0058264494119655529 -0.0038564487486272246 -2.9956657766393164e-05 0.00074974987655878071 0.0092034249007701876 0.031667492259293793 0.016350069582462313 -0.019464586890535429 -0.0060354694636576131 -0.00097734986916863309 -0.01061800230464769 -0.018056308939729048 0.01599430781430923 0.00030859295514966737 0.0114105431565448 -0.0055278234636332371 0.018760060324954489 0.0062107615880923322 0.0045574919907031232 0.0016930815556810961 0.00049107665559504094 0.01256877636010556 -0.016683025316645703 -0.01251456469146754 0.0048356689532975793 -0.014440948160534556 0.0037562917335890234 -0.0066261937073431908 0.01933727189898491
leaf_weight=27 34 21 37 191 21 25 20 25 32 298 878 32 23 26 1043 46 71 24 219 27 27 41 46 39 34 23 22 22 20 30
leaf_count=27 34 21 37 191 21 25 20 25 32 298 878 32 23 26 1043 46 71 24 219 27 27 41 46 39 34 23 22 22 20 30
internal_value=0 0.000161204 0.00822218 -0.000160732 -0.00109037 0.00241855 0.00462276 -0.00246793 -0.00823098 -0.00179334 -0.00225908 -0.00192439 0.00109401 0.000459456 0.00113238 0.000777546 -0.00595342 0.00701654 0.0033035 0.0131333 0.00873971 0.00440687 0.00687699 -0.0112807 -0.00745001 -0.00299208 -0.00590432 -0.0017769 -0.0107196 0.0167512
internal_weight=0 3333 128 3205 1841 519 430 1322 89 1228 1176 57 1364 1232 1115 1089 117 132 410 91 52 108 87 94 55 94 91 49 42 64
internal_count=3424 3333 128 3205 1841 519 430 1322 89 1228 1176 57 1364 1232 1115 1089 117 132 410 91 52 108 87 94 55 94 91 49 42 64
is_linear=0
shrinkage=0.2


Tree=24
num_leaves=25
num_cat=0
split_feature=9 9 1 2 1 9 2 5 2 0 9 9 3 9 11 13 3 3 1 6 5 12 12 13
split_gain=0.0823255 0.0828125 0.198304 0.172181 0.243246 0.147679 0.136007 0.126356 0.0981982 0.149394 0.0811186 0.358619 0.168169 0.159117 0.142561 0.134266 0.11239 0.072797 0.0464156 0.0303707 0.0371279 0.0183893 0.0295642 0.0198345
threshold=25.774649158958887 25.331772344933011 2.1911913980376365 1.4575777318502705 2.5440794006988932 25.20754012750125 1.1761000918225977 28.187366886087769 0.99362402232343527 4.0063636259707414 24.089234138437426 23.963335650195823 0.75658153155551922 24.150097420347763 594.45026490573684 563581.28107290098 0.4408051602510295 0.59100267396570116 2.4535887488128565 0.99969492083381251 9.3322879623515842 2.0848194998680167 2.0379500867921974 327387.44545619347
decision_type=2 2 2 2 2 2 2 2 2 2 2 2 2 2 2 2 2 2 2 2 2 2 2 2
left_child=1 5 -3 7 -5 8 -7 -4 9 -1 11 12 -10 16 -13 -15 -12 -8 19 -2 -21 22 23 -22
right_child=18 2 3 4 -6 6 17 -9 10 -11 13 14 -14 15 -16 -17 -18 -19 -20 20 21 -23 -24 -25
leaf_value=-0.00286677235737443 0.010152794718742371 0.0095829911778370549 -0.0092229538051218831 0.0087416287190658411 -0.01572223660889371 -0.003130861201013128 0.022419913530421373 -0.029886823333799842 -0.00045373253702277254 0.021285804804591909 0.00018970216042362155 0.014473665350225646 -0.018917073964257725 0.00090365360178475953 0.0043173031054665242 -0.0035154205519050928 -0.01436524054124242 0.0063703191251261162 0.012221998512744905 -0.0061430571018718187 -0.0010963526903651655 -0.0011731564599488462 0.010168820723063417 0.0068139684430900075
leaf_weight=20 20 30 29 37 29 24 26 20 1476 21 32 77 20 659 196 472 63 20 25 20 32 28 27 21
leaf_count=20 20 30 29 37 29 24 26 20 1476 21 32 77 20 659 196 472 63 20 25 20 32 28 27 21
internal_value=0 -0.000226227 -0.00489805 -0.00867571 -0.00200765 -8.12866e-06 0.00907405 -0.0176572 -0.000217533 0.00950406 -0.000350617 0.000515892 -0.000700569 -0.00160091 0.00718192 -0.000940558 -0.00946252 0.0154418 0.00425124 0.00290483 0.00177233 0.00323815 0.0047821 0.00203793
internal_weight=0 3251 145 115 66 3106 70 49 3036 41 2995 1769 1496 1226 273 1131 95 46 173 148 128 108 80 53
internal_count=3424 3251 145 115 66 3106 70 49 3036 41 2995 1769 1496 1226 273 1131 95 46 173 148 128 108 80 53
is_linear=0
shrinkage=0.2


Tree=25
num_leaves=19
num_cat=0
split_feature=2 10 3 5 0 0 12 14 2 0 9 9 9 1 5 1 3 1
split_gain=0.0602372 0.116544 0.0709603 0.142314 0.180637 0.100079 0.0801216 0.184395 0.119688 0.109383 0.0762071 0.14815 0.114929 0.0746924 0.0680627 0.0483418 0.0819444 0.0429419
threshold=1.7099606568550334 378446.50000000006 0.65834770904648077 10.730809783551127 3.7887698147267863 2.9799168168610577 1.7595309742381449 89601.000000000015 1.4684769675134335 4.0888636027765726 25.084803031731955 25.157763852223123 24.991963209675898 2.5496681801506327 15.568876743316652 2.4018519211113705 0.7037103454290895 2.4908564867252445
decision_type=2 2 2 2 2 2 2 2 2 2 2 2 2 2 2 2 2 2
left_child=1 17 5 4 13 -3 7 8 -7 -9 12 -12 -8 -4 -5 -16 -17 -1
right_child=-2 2 3 14 -6 6 10 9 -10 -11 11 -13 -14 -15 15 16 -18 -19
leaf_value=0.0047549581695948877 -0.0078152439398810458 0.012293099563275636 -0.014094856641763312 -0.018037050919464 0.013591753358416487 0.0055339346715617323 -0.00053225263288999701 -0.0099554858563674839 0.020408357479251349 0.0015197588339829304 0.013020101147096442 0.00088152925498434336 -0.012788510720636095 0.00047949995153034349 0.0019717857019887083 -0.0023829488859822352 -0.01927342128008604 0.016468323128564017
leaf_weight=31 39 27 22 26 33 129 2394 45 26 127 46 320 31 39 21 27 20 21
leaf_count=31 39 27 22 26 33 129 2394 45 26 127 46 320 31 39 21 27 20 21
internal_value=0 9.00427e-05 -5.65388e-05 -0.00383097 0.00167172 0.000169087 6.41003e-05 0.00302602 0.008029 -0.00148249 -0.000282925 0.00240714 -0.000688931 -0.00477683 -0.00933366 -0.00600589 -0.00957038 0.00948536
internal_weight=0 3385 3333 188 94 3145 3118 327 155 172 2791 366 2425 61 94 68 47 52
internal_count=3424 3385 3333 188 94 3145 3118 327 155 172 2791 366 2425 61 94 68 47 52
is_linear=0
shrinkage=0.2


Tree=26
num_leaves=18
num_cat=0
split_feature=4 9 2 5 0 2 0 2 0 5 5 5 9 2 0 14 5
split_gain=0.0556677 0.127426 0.117534 0.0981142 0.0974646 0.0892644 0.0877843 0.0808141 0.0673564 0.0667082 0.184917 0.12635 0.105478 0.06261 0.0564949 0.0521353 0.0290622
threshold=7.7768069528644554 22.84838606997123 1.6743153981985801 10.860470640863729 4.4604241788690642 1.6363688327514818 4.9974508696110265 1.6171029370011829 5.4508326601075003 3.0840801611020159 5.7930142005068896 12.014466658570067 23.498714743553371 1.3424533705093724 3.0864673488949861 76276.500000000015 1.0325906276702888
decision_type=2 2 2 2 2 2 2 2 2 2 2 2 2 2 2 2 2
left_child=2 -2 5 -3 -5 7 -6 9 15 14 12 -12 -11 -10 -1 -8 -16
right_child=1 3 -4 4 6 -7 8 -9 13 10 11 -13 -14 -15 16 -17 -18
leaf_value=-0.01330015566200018 -0.0082862554830225085 0.015300750191653929 -0.012090007916699645 -0.0096912976443057977 0.014129175827838481 0.011811548963189126 0.0026432712477716534 -0.012552155483336675 0.00014537903879370008 -0.0047154129970641365 -0.0033360829336608875 0.00023628791616331758 0.0060278081049455721 0.012195823185474557 0.00090566866640602389 -0.011465667798183858 -0.0045952041608069349
leaf_weight=22 34 31 33 21 32 25 22 21 35 42 487 2120 282 34 62 20 101
leaf_count=22 34 31 33 21 32 25 22 21 35 42 487 2120 282 34 62 20 101
internal_value=0 0.00301219 -0.000215897 0.00498218 0.00303171 -9.19739e-05 0.00490013 -0.000186838 0.0022395 -0.000103503 0.000128984 -0.000431048 0.00463517 0.00608328 -0.00378685 -0.00407527 -0.00250285
internal_weight=0 229 3195 195 164 3162 143 3137 111 3116 2931 2607 324 69 185 42 163
internal_count=3424 229 3195 195 164 3162 143 3137 111 3116 2931 2607 324 69 185 42 163
is_linear=0
shrinkage=0.2


Tree=27
num_leaves=31
num_cat=0
split_feature=2 2 1 3 1 1 1 5 12 0 11 2 3 2 6 3 0 2 1 0 2 7 2 5 0 2 3 5 3 10
split_gain=0.0558397 0.124547 0.311187 0.288896 0.171046 0.39107 0.242156 0.119258 0.119048 0.117481 0.0821984 0.209825 0.190491 0.1538 0.211267 0.299757 0.234341 0.189165 0.170787 0.291903 0.168594 0.170817 0.1353 0.118679 0.266294 0.210781 0.165382 0.135017 0.112548 0.160677
threshold=1.3410328172682797 1.2995024769517025 2.3221111814345696 0.38823033961484027 2.2787342787002731 2.229476095889777 2.2980281918226924 32.554414849903303 2.054815105202437 4.7826147486224047 574.09337264340093 1.5111744447466811 0.57157889946369955 1.5048678029426223 0.99969492083381251 0.39636662940587319 4.0689158230189859 1.4411010608207377 2.3462102928210857 4.9903939016199415 1.3594084724363353 0.54710218553193701 1.4913572720019037 106.86917417491411 4.9387706949831935 1.4279392657811425 0.48429528977311637 99.644631983481275 0.54405776345742907 867648.36041890213
decision_type=2 2 2 2 2 2 2 2 2 2 2 2 2 2 2 2 2 2 2 2 2 2 2 2 2 2 2 2 2 2
left_child=1 4 3 7 5 8 -6 -3 -1 -4 13 12 23 14 16 -16 17 -2 -18 -20 -17 -22 -14 27 26 -26 -25 -12 29 -15
right_child=10 2 9 -5 6 -7 -8 -9 -10 -11 11 -13 22 28 15 20 18 -19 19 -21 21 -23 -24 24 25 -27 -28 -29 -30 -31
leaf_value=0.0014810575426642196 0.011986128077842296 0.013282280249728096 -0.017124024874841173 0.022148701770508546 0.026301892665214838 -0.028991251296940301 0.002174037067464205 0.0012878315050214057 -0.0065486143493936185 0.0023802112011859816 -0.00097921531724295594 0.011448097663621109 -0.02595646215856753 0.0016493666917085648 -0.016828928755498247 0.016664992698601316 0.0058662344221065343 -0.010000713167505133 0.027337919153273105 0.00011328123206191739 0.0042356415582422658 -0.0031744068699450737 -0.0044511197558604184 -0.0070607109971152736 -0.0051954037607686611 0.0095089118590514221 -0.023397980635173812 0.010890130545012653 -0.00080226108487028731 -0.017333550223459802
leaf_weight=249 24 45 30 47 20 21 99 126 105 21 921 48 22 31 38 28 94 45 50 23 262 237 25 68 119 58 39 40 447 42
leaf_count=249 24 45 30 47 20 21 99 126 105 21 921 48 22 31 38 28 94 45 50 23 262 237 25 68 119 58 39 40 447 42
internal_value=0 0.00150833 0.00497109 0.00826128 -0.000377267 -0.0024737 0.00622914 0.00444427 -0.000900625 -0.00909287 -0.000432489 -0.00153616 -0.00201854 0.000687053 0.00242583 0.000326591 0.00745154 -0.00235312 0.0115026 0.0187603 0.00156361 0.00071624 -0.0145175 -0.0015467 -0.00513868 -0.00037704 -0.0130154 -0.000485174 -0.00199133 -0.00927231
internal_weight=0 763 269 218 494 375 119 171 354 51 2661 1340 1292 1321 801 565 236 69 167 73 527 499 47 1245 284 177 107 961 520 73
internal_count=3424 763 269 218 494 375 119 171 354 51 2661 1340 1292 1321 801 565 236 69 167 73 527 499 47 1245 284 177 107 961 520 73
is_linear=0
shrinkage=0.2


Tree=28
num_leaves=31
num_cat=0
split_feature=6 3 5 0 10 9 9 12 5 13 7 9 5 0 9 0 9 0 0 5 9 9 9 5 6 0 6 5 1 3
split_gain=0.0525072 0.104939 0.120226 0.122238 0.0844227 0.0747738 0.135247 0.205057 0.173189 0.142463 0.128989 0.104083 0.100972 0.252737 0.0985363 0.0950221 0.265513 0.219114 0.144024 0.134799 0.232208 0.319778 0.211393 0.133968 0.103114 0.0945978 0.0905002 0.0787533 0.0780963 0.0731717
threshold=0.00061272236963689163 0.44717768947071174 88.046971160857794 4.3991064878887238 2499893.5996621992 23.286864094966951 22.881767806027735 1.8883430563759804 7.2962209832724119 275996.53293783526 0.043117543681093502 23.314293281417118 14.995866087129745 4.2714982936695192 22.285798060452567 4.5138746621935804 23.54972527949074 4.5677061903739782 4.6356280949610023 7.293960559610059 23.406595729035143 23.569710527176252 23.498714743553371 2.203739429809334 0.7959319585043062 4.5513191603018823 0.99969492083381251 45.672572318632014 2.425604889988624 0.52728530651554772
decision_type=2 2 2 2 2 2 2 2 2 2 2 2 2 2 2 2 2 2 2 2 2 2 2 2 2 2 2 2 2 2
left_child=1 4 3 -3 -1 6 12 10 -9 -10 -8 -7 28 -14 -15 19 24 25 -19 22 -21 -22 -13 -24 -17 -18 -16 -26 -2 -12
right_child=5 2 -4 -5 -6 11 7 8 9 -11 29 15 13 14 26 16 17 18 -20 20 21 -23 23 -25 27 -27 -28 -29 -30 -31
leaf_value=0.014991622438301912 -0.014290633859790808 -0.00021704667251778106 -0.0093922266574657486 0.015721089688494155 0.0035862365908835127 -0.0097780293461923705 0.028284080867611229 0.019186260793358088 -0.015475966459648174 0.0021678476795178214 0.017481422713026405 -0.014696051276499226 0.017556104145478459 -0.01040342156491356 -0.0072078257285315417 0.00269301300495863 0.0042267692519369756 -0.0087081435163146315 1.4060316519775102e-05 0.012781996760718726 -0.017509287496407826 -0.0024515612440154655 -0.0040291541661158911 0.0042472917660708494 0.010692797946419729 0.017563796612537569 0.0068359659779816872 0.027632943505332588 -0.0013966292131780871 0.00037332524545490741
leaf_weight=37 34 118 46 23 87 49 21 20 22 109 20 31 32 41 29 25 52 83 864 37 60 944 101 347 23 36 50 21 42 20
leaf_count=37 34 118 46 23 87 49 21 20 22 109 20 31 32 41 29 25 52 83 864 37 60 944 101 347 23 36 50 21 42 20
internal_value=0 0.00247789 -0.000513737 0.00238279 0.00698946 -0.00024755 0.0021684 0.00580476 0.00185132 -0.000795236 0.0155912 -0.000645238 -0.00121278 0.00176333 -0.00244807 -0.000474694 0.000937511 0.000136677 -0.000750399 -0.0015004 -0.002778 -0.00335143 0.00127618 0.0023814 0.01295 0.00968283 0.00168065 0.0187779 -0.007165 0.00892737
internal_weight=0 311 187 141 124 3113 440 212 151 131 61 2673 228 152 120 2624 1104 1035 947 1520 1041 1004 479 448 69 88 79 44 76 40
internal_count=3424 311 187 141 124 3113 440 212 151 131 61 2673 228 152 120 2624 1104 1035 947 1520 1041 1004 479 448 69 88 79 44 76 40
is_linear=0
shrinkage=0.2


Tree=29
num_leaves=21
num_cat=0
split_feature=0 0 0 0 2 5 5 2 0 5 0 5 0 5 5 2 2 14 11 13
split_gain=0.0415532 0.0529904 0.0616458 0.0604775 0.156684 0.0595376 0.240486 0.2059 0.0906987 0.148309 0.197656 0.142285 0.1005 0.136561 0.13119 0.0792142 0.0489739 0.0442188 0.033194 0.0290555
threshold=5.4508326601075003 5.333326444808633 5.3581314515755851 5.2896339835106732 1.4313538670633987 104.52309150056847 113.85556230939495 1.4443959220560834 4.65324229711677 54.520243898872387 4.5778159321106164 57.936605231262185 4.758546746602021 28.627487641882297 17.126673322561825 1.430155898861331 1.4471532595845888 78730.500000000015 613.81147395358892 465406.58943787642
decision_type=2 2 2 2 2 2 2 2 2 2 2 2 2 2 2 2 2 2 2 2
left_child=1 3 -3 5 -5 8 16 15 9 10 -1 -11 13 -10 -14 -8 -7 -9 -2 -20
right_child=18 2 -4 4 -6 6 7 17 12 11 -12 -13 14 -15 -16 -17 -18 -19 19 -21
leaf_value=-0.00060222417453166272 0.0091319240958375094 -0.01484397908761388 0.00030540805310010912 -0.0028368363287881952 0.018294871449470521 -0.0090172115759924055 -0.0020319550307766627 0.0027593929272344605 -0.0061280166515364099 0.01639894250418163 -0.015164292711568507 0.0022908101970557687 0.0093090003763791184 0.0098840447995117153 -0.00046794666889680964 -0.010348517088026837 -0.022417616626868645 0.010417103468668911 -0.0046908919122957051 0.0044960229052230715
leaf_weight=1979 34 21 22 32 25 20 218 70 26 36 38 139 64 118 386 58 24 53 21 40
leaf_count=1979 34 21 22 32 25 20 218 70 26 36 38 139 64 118 386 58 24 53 21 40
internal_value=0 -0.000117698 -0.00709313 -2.6419e-05 0.00643146 -0.000140417 -0.00229409 -0.000746657 0.000202038 -0.000391998 -0.000876572 0.00519305 0.00239417 0.00699298 0.000922552 -0.00377964 -0.0163265 0.00605906 0.0041244 0.00133331
internal_weight=0 3329 43 3286 57 3229 443 399 2786 2192 2017 175 594 144 450 276 44 123 95 61
internal_count=3424 3329 43 3286 57 3229 443 399 2786 2192 2017 175 594 144 450 276 44 123 95 61
is_linear=0
shrinkage=0.2


Tree=30
num_leaves=23
num_cat=0
split_feature=3 11 5 5 14 0 3 14 13 5 5 1 5 1 2 1 2 7 3 12 0 12
split_gain=0.0489063 0.0651783 0.0426979 0.213919 0.119495 0.10783 0.151071 0.11678 0.108417 0.0646924 0.153336 0.130954 0.114566 0.109395 0.135009 0.130086 0.0833452 0.165607 0.0798345 0.0445798 0.0227544 0.013786
threshold=0.82280935980193071 173.37439163087546 5.6883420744529714 4.8833981930758847 80650.000000000015 4.0990540612996833 0.42904090758914054 81508.500000000015 194713.15311025357 15.568876743316652 17.126673322561825 2.349010465573703 14.764849620732493 2.0396040016320711 1.4149631558702149 2.2354709500267389 1.5986210295868994 0.99969492083381251 0.54366995265444051 2.0600531231221288 4.1590113758009659 2.2700977040737809
decision_type=2 2 2 2 2 2 2 2 2 2 2 2 2 2 2 2 2 2 2 2 2 2
left_child=1 -1 3 5 20 6 -3 19 -8 12 11 -11 13 14 -4 -15 18 -18 -12 -7 -5 -22
right_child=-2 2 9 4 -6 7 8 -9 -10 10 16 -13 -14 15 -16 -17 17 -19 -20 -21 21 -23
leaf_value=0.0081964766941009428 -0.0084783476673894465 0.013011369658143899 -0.0026708497148421077 0.00084466297109611328 0.021863062602157396 0.0018273101286276393 0.01381759379291907 -0.019395572074096312 -0.0014394906440215625 -0.001234795969156992 -0.00042266524547820983 0.019220253251185041 -0.015247899256646633 -0.0077737774678971628 0.0095770187042136176 -0.00091879477231250313 -0.017785433373383938 0.0012117452515910069 0.0027743430416068385 -0.0091829513820509117 0.010548762521810001 0.0046316648833453654
leaf_weight=39 27 38 72 25 24 38 20 22 272 21 1571 31 25 150 72 423 31 45 390 24 36 28
leaf_count=39 27 38 72 25 24 38 20 22 272 21 1571 31 25 150 72 423 31 45 390 24 36 28
internal_value=0 6.73875e-05 -2.70242e-05 0.00162592 0.00933869 -0.000479259 0.00114922 -0.00687685 -0.000394485 -0.000334725 0.000235071 0.0109596 -0.00193891 -0.00147486 0.00345308 -0.00271329 -3.87006e-05 -0.0065371 0.00021315 -0.00243473 0.00596133 0.00796003
internal_weight=0 3397 3358 527 113 414 330 84 292 2831 2089 52 742 717 144 573 2037 76 1961 62 89 64
internal_count=3424 3397 3358 527 113 414 330 84 292 2831 2089 52 742 717 144 573 2037 76 1961 62 89 64
is_linear=0
shrinkage=0.2


Tree=31
num_leaves=30
num_cat=0
split_feature=1 1 9 9 1 12 11 1 7 5 12 9 1 0 5 0 9 5 7 2 9 1 1 5 0 0 2 0 0
split_gain=0.0392045 0.0975742 0.0856453 0.0504667 0.169761 0.172125 0.128438 0.143884 0.0878077 0.258077 0.0848032 0.0910699 0.0838066 0.0837221 0.201166 0.27033 0.109506 0.0772242 0.0647732 0.0591064 0.166565 0.100198 0.0578433 0.038001 0.0359292 0.0249946 0.012876 0.0101382 0.00228828
threshold=1.7370434349644566 1.8132238594866992 25.041666666666668 23.406595729035143 2.080559454661544 2.0487051322309546 613.81147395358892 2.5200727052678937 0.35362753361379257 32.554414849903303 1.8883430563759804 22.808722857207414 2.5001193190950999 4.6356280949610023 83.204113056650627 4.5778159321106164 23.54972527949074 43.522419151017395 0.00061272236963689163 1.3222256038898068 23.63342049890765 2.080559454661544 2.60757869794242 15.568876743316652 4.0013966714268774 4.7470657061347747 1.3617162662137372 5.0162283500269078 4.5527925678685586
decision_type=2 2 2 2 2 2 2 2 2 2 2 2 2 2 2 2 2 2 2 2 2 2 2 2 2 2 2 2 2
left_child=23 2 25 4 5 -3 13 19 9 22 11 -10 -12 14 15 -5 -15 -18 -7 21 -21 -8 -6 -1 -9 28 -27 -25 -2
right_child=1 3 -4 6 8 18 7 24 10 -11 12 -13 -14 16 -16 -17 17 -19 -20 20 -22 -23 -24 27 -26 26 -28 -29 -30
leaf_value=0.0015902331249127465 0.011027745122001284 0.025254915832457221 -0.0025865773594862707 -0.00039102959153212264 -0.00076034291395459506 0.012621911716732112 -0.0022930802811970351 -0.0081521313358098278 -0.0048461275422596378 0.018585238505054166 -0.0014856274867876588 0.0085728927329182629 -0.0097942388924555143 0.013310773755822864 0.018466731431809338 -0.02100474710056845 0.0059452705699592255 0.00029048246018491947 -0.0014754656411241742 -0.013246679074805361 -0.0018773257598626884 0.0073491390651235214 0.0096823017966623116 -0.010217484195406239 -0.019996752731856846 0.0091645437772967849 0.0027404291770206052 -0.0049107294477936303 0.014016925226897001
leaf_weight=31 21 22 37 1197 183 22 128 20 32 37 192 55 65 35 22 26 130 376 32 58 463 65 24 24 21 24 26 36 20
leaf_count=31 21 22 37 1197 183 22 128 20 32 37 192 55 65 35 22 26 130 376 32 58 463 65 24 24 21 24 26 36 20
internal_value=0 0.000111824 0.0055267 -0.000104433 0.00144809 0.0103431 -0.000510129 -0.00269709 0.00029839 0.00320035 -0.00175998 0.00363716 -0.00358703 0.000414371 -0.000488287 -0.000829261 0.00249165 0.00174329 0.00426791 -0.00203548 -0.00314301 0.000954299 0.000450399 -0.0040957 -0.0142189 0.00882551 0.005824 -0.00703343 0.0124859
internal_weight=0 3333 128 3205 664 76 2541 755 588 244 344 87 257 1786 1245 1223 541 506 54 714 521 193 207 91 41 91 50 60 41
internal_count=3424 3333 128 3205 664 76 2541 755 588 244 344 87 257 1786 1245 1223 541 506 54 714 521 193 207 91 41 91 50 60 41
is_linear=0
shrinkage=0.2


Tree=32
num_leaves=22
num_cat=0
split_feature=9 9 1 13 5 9 2 2 0 9 1 3 8 9 1 2 14 0 0 13 4
split_gain=0.0401351 0.063856 0.107984 0.130556 0.101816 0.0517583 0.0882709 0.0549792 0.0574617 0.0458455 0.048275 0.208988 0.115522 0.0339158 0.0913145 0.0311298 0.0304713 0.0205242 0.0155105 0.019873 0.00547016
threshold=25.774649158958887 25.331772344933011 2.1911913980376365 563581.28107290098 21.792326998868287 25.20754012750125 1.1874139635733496 0.99362402232343527 4.0063636259707414 25.173316979933205 2.2354709500267389 0.28865654736308038 1.0000000180025095e-35 48.34633268878261 2.2846884649946291 1.4771123473539318 83620.000000000015 4.573413538715652 4.0320174370991682 563581.28107290098 7.7997538804862581
decision_type=2 2 2 2 2 2 2 2 2 2 2 2 2 2 2 2 2 2 2 2 2
left_child=1 5 -3 4 15 7 -7 8 -1 10 12 -12 -9 14 20 -4 18 -11 -15 -20 -2
right_child=13 2 3 -5 -6 6 -8 9 -10 17 11 -13 -14 16 -16 -17 -18 -19 19 -21 -22
leaf_value=-0.0004884540656348691 -0.00091940410961599453 0.0064256118036185713 -0.0095502453563468814 0.0060738368425518278 -0.019815761579159319 -0.0023290629313123647 0.011927701208103252 -0.0016518545399843033 0.014490671810649692 -0.011118765725266367 0.017440971141231471 0.00031413370405231745 0.0047506590213626625 -0.0022274458670013008 0.016695679388130488 -0.00030986655503511428 -0.0059219117276370532 -0.0024707647931316626 0.0078665408626969521 0.00063797337934374816 0.0034425503452834879
leaf_weight=20 23 30 35 24 31 32 38 1148 21 21 29 1649 125 21 23 25 22 23 29 32 23
leaf_count=20 23 30 35 24 31 32 38 1148 21 21 29 1649 125 21 23 25 22 23 29 32 23
internal_value=0 -0.000157957 -0.00426037 -0.00704802 -0.0105087 3.35589e-05 0.00541032 -9.04113e-05 0.00718378 -0.000189991 -9.44432e-05 0.000610128 -0.00102317 0.00296832 0.00640628 -0.00570009 0.000687369 -0.00659822 0.00246059 0.00407451 0.00126157
internal_weight=0 3251 145 115 91 3106 70 3036 41 2995 2951 1678 1273 173 69 60 104 44 82 61 46
internal_count=3424 3251 145 115 91 3106 70 3036 41 2995 2951 1678 1273 173 69 60 104 44 82 61 46
is_linear=0
shrinkage=0.2


Tree=33
num_leaves=31
num_cat=0
split_feature=5 5 9 1 1 14 0 0 3 9 4 1 3 2 2 11 3 0 0 11 5 5 5 9 5 1 3 3 0 5
split_gain=0.0344803 0.110386 0.133443 0.0823255 0.211541 0.121084 0.106075 0.218006 0.18072 0.105265 0.0735851 0.0675125 0.0672185 0.0613533 0.214974 0.194567 0.165703 0.136729 0.146393 0.102426 0.0849534 0.17723 0.120024 0.0941008 0.0786213 0.0768321 0.0682471 0.161345 0.150758 0.0582186
threshold=7.293960559610059 8.0543479810410989 23.683388568216543 2.4622451016276017 2.5888202002271723 78730.500000000015 4.2016030697910844 4.0689158230189859 0.41503239954805266 23.783410244134199 7.6227541601201976 2.4908564867252445 0.57833136982263189 1.4585763916748731 1.4754462723087112 594.45026490573684 0.60171358120689789 3.6385723211899559 3.3695278731485714 626.03641638371676 11.746954404477249 13.116256442095173 13.925581129505954 23.449852073571936 9.667018689559205 2.4037781295019935 0.50204320614231268 0.51522924714516705 4.8982636826242087 5.3814796563977199
decision_type=2 2 2 2 2 2 2 2 2 2 2 2 2 2 2 2 2 2 2 2 2 2 2 2 2 2 2 2 2 2
left_child=3 2 -2 5 9 29 7 8 -7 -5 11 -11 -10 17 15 16 25 18 -3 26 24 23 -23 -22 -19 -15 28 -28 -16 -1
right_child=1 13 -4 4 -6 6 -8 -9 12 10 -12 -13 -14 14 19 -17 -18 20 -20 -21 21 22 -24 -25 -26 -27 27 -29 -30 -31
leaf_value=-0.0016374468804990624 0.0051294103031978011 -1.4968707480213861e-05 -0.014504770777291724 -0.020283181215858176 0.0057363602258946478 0.0221804051395421 -0.0060432984316278072 0.027977490008232145 -0.0021852150190107781 -0.01602869938629178 0.004948886577039957 -0.0035060644953274264 0.0087247029720881105 0.024657671740560824 -0.013259193944848247 -0.0043881753847069506 -0.0016818185278680176 0.0040884392821918369 -0.022835221773256427 0.010962778836255894 0.0038301902202268444 -0.014583930563336858 -0.00033235915302312537 0.020833756304953412 -0.0092372867587179729 0.012010917869275032 0.017706044823862614 -0.00054449777505928565 0.0072631211685282851 0.0037885865355985096
leaf_weight=202 20 22 45 21 82 22 21 21 58 26 24 51 37 33 45 35 24 23 23 32 30 24 1565 23 77 46 20 621 21 130
leaf_count=202 20 22 45 21 82 22 21 21 58 26 24 51 37 33 45 35 24 23 23 32 30 24 1565 23 77 46 20 621 21 130
internal_value=0 -0.000320287 -0.00846348 0.00125764 -0.00211935 0.00266071 0.00719911 0.00921426 0.0058465 -0.00739942 -0.00472062 -0.00773449 0.00206391 -0.000121598 0.00124848 0.00849461 0.0128722 -0.000793985 -0.0116787 -0.000104657 -0.000512808 -0.000168133 -0.000547613 0.0112091 -0.00617237 0.0172937 -0.000605588 2.49419e-05 -0.00672937 0.000487205
internal_weight=0 2729 65 695 204 491 159 138 117 122 101 77 95 2664 877 138 103 1787 45 739 1742 1642 1589 53 100 79 707 641 66 332
internal_count=3424 2729 65 695 204 491 159 138 117 122 101 77 95 2664 877 138 103 1787 45 739 1742 1642 1589 53 100 79 707 641 66 332
is_linear=0
shrinkage=0.2


Tree=34
num_leaves=21
num_cat=0
split_feature=3 0 3 5 5 3 2 1 1 14 5 0 13 1 4 3 3 2 3 14
split_gain=0.0380022 0.0457642 0.03834 0.142878 0.0776063 0.0429666 0.122021 0.0790669 0.0629216 0.0407906 0.0831498 0.115375 0.0813724 0.0712922 0.0574756 0.0418413 0.0536734 0.0390318 0.0287217 0.0141556
threshold=0.77313417289234032 3.7489729076960119 0.72506875247803593 23.323264774804667 8.6558409014445949 0.65834770904648077 1.7079476246947294 2.6280371519601711 2.4471128793008794 117640.50000000001 6.1091068706319289 4.1838110521052991 194713.15311025357 2.3726673906031928 7.6227541601201976 0.63456064889926045 0.60421083575568735 1.5879906265674337 0.55629877790786941 75596.000000000015
decision_type=2 2 2 2 2 2 2 2 2 2 2 2 2 2 2 2 2 2 2 2
left_child=2 -2 5 4 -4 9 7 8 -7 12 -11 -12 14 -13 18 16 -14 -10 -1 -17
right_child=1 -3 3 -5 -6 6 -8 -9 17 10 11 13 15 -15 -16 19 -18 -19 -20 -21
leaf_value=0.0063690592823871257 0.0012963188368649711 -0.011256622204270501 0.0030344081665610988 -0.0089069707179442043 0.020228683859819459 -0.0014020301477127785 0.010910353084493962 0.0037581061920279575 -0.0085577444871887572 0.0079039405391085893 -0.014765865065689599 -0.0071777172921661378 0.00022135456901750648 0.0034299705033613878 0.013144714565714822 0.0031514247937593611 -0.0040003768367958921 -0.019073933530598882 -0.0033430079131254128 0.0099341719481162733
leaf_weight=29 21 26 21 20 21 37 21 29 48 24 35 47 2739 55 32 32 126 20 21 20
leaf_count=29 21 26 21 20 21 37 21 29 48 24 35 47 2739 55 32 32 126 20 21 20
internal_value=0 -0.00564786 7.86051e-05 0.00500622 0.0116315 -1.35553e-05 -0.00326466 -0.00548612 -0.00803929 0.000145914 -0.00295537 -0.00485773 0.000312405 -0.00145789 0.00652598 0.000137735 3.56868e-05 -0.0116507 0.00228999 0.00576017
internal_weight=0 47 3377 62 42 3315 155 134 105 3160 161 137 2999 102 82 2917 2865 68 50 52
internal_count=3424 47 3377 62 42 3315 155 134 105 3160 161 137 2999 102 82 2917 2865 68 50 52
is_linear=0
shrinkage=0.2


Tree=35
num_leaves=31
num_cat=0
split_feature=13 13 13 9 9 5 7 5 6 9 5 5 9 9 0 9 9 0 0 0 9 9 13 9 9 9 9 14 5 9
split_gain=0.0335455 0.329651 0.0725511 0.0662503 0.143999 0.0833758 0.128857 0.0975915 0.0712876 0.080958 0.222399 0.117185 0.0986922 0.0643557 0.0632053 0.0630287 0.0577113 0.0565632 0.254088 0.077202 0.132999 0.0677618 0.0668273 0.0879834 0.0610563 0.211347 0.275897 0.0967923 0.0747235 0.119811
threshold=327387.44545619347 332106.25362583488 322646.27596474742 24.040340284226239 23.96770767577544 45.92010769946139 0.69900653764335241 43.522419151017395 0.68709938621690514 24.336739971727017 46.480126634802133 34.902403636003172 24.400646637512974 24.24286337773842 5.161035768153444 23.783410244134199 23.949294675663886 4.3991064878887238 4.269154153858099 4.472185950839223 22.174203562928419 24.032829845479373 275996.53293783526 23.949294675663886 23.406595729035143 23.933338460720062 23.783410244134199 103833.50000000001 23.323264774804667 22.917522807356359
decision_type=2 2 2 2 2 2 2 2 2 2 2 2 2 2 2 2 2 2 2 2 2 2 2 2 2 2 2 2 2 2
left_child=2 -2 17 4 5 7 -7 15 -5 10 11 -10 -11 -12 -14 -3 -8 18 24 21 -21 -19 23 -20 28 26 -26 -27 29 -1
right_child=1 3 -4 8 -6 6 16 -9 9 12 13 -13 14 -15 -16 -17 -18 19 22 20 -22 -23 -24 -25 25 27 -28 -29 -30 -31
leaf_value=-0.0039256358742713934 0.015107891444737712 3.6103914730221192e-05 -0.007644441008757232 0.0031331017992592284 0.0083423066816370305 -0.010761469362270354 0.00065042836831305257 0.014722063311416171 -0.0020107439983082166 0.0057878708969173812 -0.0085919853392988441 0.013805323839187623 -0.0024571603550486531 -0.019454094320535659 0.0035911437971180822 0.0048948965161560651 -0.0080910803311887904 0.0021265531051903965 -0.027407610528171061 -0.015763851571828129 0.00085395848192918854 0.016739981232041661 -0.0034836578927934167 -0.010164543171990302 -0.0031206200706859468 0.0023303040304918079 -0.025499728780656979 -0.0074632570865821651 0.014445576537400485 0.0082389339004038716
leaf_weight=75 60 377 59 140 102 56 271 23 174 89 80 21 413 30 83 149 34 30 20 20 524 22 20 29 83 286 30 47 20 57
leaf_count=75 60 377 59 140 102 56 271 23 174 89 80 21 413 30 83 149 34 30 20 20 524 22 20 29 83 286 30 47 20 57
internal_value=0 0.000496454 -0.00078937 6.71272e-05 0.0012164 0.000417676 -0.00194314 0.00197005 -0.00106206 -0.00172198 -0.00436374 -0.000307475 -0.000344653 -0.0115544 -0.00144504 0.00141245 -0.000324035 -0.000469141 -0.00173433 0.000946767 0.00024301 0.00830916 -0.013226 -0.0172025 -0.000408364 -0.00158814 -0.00906198 0.00094803 0.00305334 0.00132725
internal_weight=0 2102 1322 2042 1012 910 361 549 1030 890 305 195 585 110 496 526 305 1263 667 596 544 52 69 49 598 446 113 333 152 132
internal_count=3424 2102 1322 2042 1012 910 361 549 1030 890 305 195 585 110 496 526 305 1263 667 596 544 52 69 49 598 446 113 333 152 132
is_linear=0
shrinkage=0.2


Tree=36
num_leaves=14
num_cat=0
split_feature=2 2 10 1 2 1 9 2 9 9 14 1 1
split_gain=0.0298861 0.0710264 0.0409324 0.0579545 0.0569236 0.125181 0.04297 0.161415 0.20763 0.104621 0.0744198 0.0585423 0.0451783
threshold=1.7099606568550334 1.6858816135102754 378446.50000000006 2.4908564867252445 1.6237785624669201 2.5351425778935468 23.115685974253754 1.3953390332149538 22.94996321460583 23.178324349742017 117640.50000000001 2.2787632614343942 2.4465402390574709
decision_type=2 2 2 2 2 2 2 2 2 2 2 2 2
left_child=1 2 3 -1 6 -6 7 11 -9 12 -11 -4 -8
right_child=-2 -3 4 -5 5 -7 9 8 -10 10 -12 -13 -14
leaf_value=-3.349588563044866e-05 -0.0055048413909016512 0.010684297993779183 0.0021222983151674272 0.013665488247005714 -0.016008244780823588 0.0020500134300057067 -0.0034583448525518181 0.0027296076829035048 0.019569997607484565 0.00012126720844186375 -0.0050495971158821262 -0.0066015216446248821 -0.016740303007619722
leaf_weight=30 39 25 50 21 28 34 20 157 36 2767 116 80 21
leaf_count=30 39 25 50 21 28 34 20 157 36 2767 116 80 21
internal_value=0 6.34236e-05 -1.56008e-05 0.00560726 -0.000102263 -0.00610533 1.23626e-05 0.00220143 0.00587082 -0.000229453 -8.6787e-05 -0.00324621 -0.0102613
internal_weight=0 3385 3360 51 3309 62 3247 323 193 2924 2883 130 41
internal_count=3424 3385 3360 51 3309 62 3247 323 193 2924 2883 130 41
is_linear=0
shrinkage=0.2


Tree=37
num_leaves=25
num_cat=0
split_feature=1 1 4 2 12 2 4 0 13 13 1 1 2 3 1 1 0 0 3 3 14 1 3 3
split_gain=0.0309939 0.122589 0.0770912 0.102302 0.106572 0.0891356 0.083674 0.0813752 0.0577977 0.0519435 0.0413925 0.0586232 0.0639375 0.0966303 0.0954233 0.0713572 0.0354171 0.0659166 0.0388056 0.051976 0.0373514 0.034509 0.0170376 0.0288291
threshold=2.5200727052678937 2.5127131042856532 7.5999693967450446 1.6743153981985801 1.9572208835898588 1.6363688327514818 7.6497055452830987 4.0063636259707414 327387.44545619347 310061.24938276998 2.5015266031383425 2.4908564867252445 1.680898700053481 0.62181129811957436 2.4367732208665491 2.4535887488128565 4.0800719885473393 4.65324229711677 0.54612610940235384 0.59107384367404781 72029.000000000015 2.6104224191358862 0.62298168002206566 0.67668873662508366
decision_type=2 2 2 2 2 2 2 2 2 2 2 2 2 2 2 2 2 2 2 2 2 2 2 2
left_child=1 10 16 5 -5 6 8 -8 21 -9 11 12 13 15 -15 -1 18 20 -2 -20 -18 -4 -21 -24
right_child=2 -3 3 4 -6 -7 7 9 -10 -11 -12 -13 -14 14 -16 -17 17 -19 19 22 -22 -23 23 -25
leaf_value=-5.7546274731291479e-06 -0.0088506174223896648 0.011532008363620233 0.0064953966343656499 0.00065781027743858956 -0.018189975390920328 0.014765872806310655 -0.013059384074100913 0.0058539834824789848 0.014903340116143228 -0.0052061193312207855 -0.0066413603845932008 0.0084381214178660333 0.010153058290481569 -0.0017674693341526871 -0.013241384524806608 0.0042527889413620529 -0.0059245938604528259 -0.00095620721175863942 0.0084388538995491605 -0.00705037783458829 -0.016936898597383076 -0.0017333752889600066 0.0027326910177598134 -0.0058624506203664682
leaf_weight=2492 28 38 47 28 21 22 24 35 20 33 36 34 25 99 41 168 22 37 21 25 28 36 37 27
leaf_count=2492 28 38 47 28 21 22 24 35 20 33 36 34 25 99 41 168 22 37 21 25 28 36 37 27
internal_value=0 0.000246199 -0.00147068 0.000834171 -0.00741981 0.00269797 0.00133647 -0.00304715 0.00525193 0.000486581 9.80606e-05 0.000182922 8.35675e-05 -6.33865e-06 -0.00512769 0.000263206 -0.00419552 -0.00735579 -0.00220317 -0.000511092 -0.0120915 0.00292629 -0.00262288 -0.000893384
internal_weight=0 2933 491 266 49 217 195 92 103 68 2895 2859 2825 2800 140 2660 225 87 138 110 50 83 89 64
internal_count=3424 2933 491 266 49 217 195 92 103 68 2895 2859 2825 2800 140 2660 225 87 138 110 50 83 89 64
is_linear=0
shrinkage=0.2


Tree=38
num_leaves=19
num_cat=0
split_feature=3 1 1 11 13 14 14 14 1 5 5 5 5 13 13 5 9 1
split_gain=0.0308368 0.03093 0.0279601 0.0277741 0.0339789 0.0841976 0.0756893 0.134441 0.0731534 0.101637 0.0622775 0.0649783 0.0595013 0.0580636 0.0707751 0.056437 0.0518903 0.010441
threshold=0.77313417289234032 2.9225911989360802 2.5780910676324895 173.37439163087546 271265.09587496775 59946.500000000007 80650.000000000015 81508.500000000015 2.2354709500267389 38.119298207428123 19.430442318859271 34.308564109135737 16.50761178925228 275996.53293783526 332106.25362583488 210.70505523681643 24.34962666187203 2.4471128793008794
decision_type=2 2 2 2 2 2 2 2 2 2 2 2 2 2 2 2 2 2
left_child=1 3 -2 -1 5 8 13 17 -5 -10 12 -12 -7 16 -15 -9 -6 -8
right_child=2 -3 -4 4 6 10 7 15 9 -11 11 -13 -14 14 -16 -17 -18 -19
